<?xml version="1.0"?>
<opencv_storage>
<cascade>
  <stageType>BOOST</stageType>
  <featureType>HAAR</featureType>
  <height>12</height>
  <width>10</width>
  <stageParams>
    <boostType>GAB</boostType>
    <minHitRate>9.9500000476837158e-01</minHitRate>
    <maxFalseAlarm>5.0000000000000000e-01</maxFalseAlarm>
    <weightTrimRate>9.4999998807907104e-01</weightTrimRate>
    <maxDepth>1</maxDepth>
    <maxWeakCount>100</maxWeakCount></stageParams>
  <featureParams>
    <maxCatCount>0</maxCatCount>
    <featSize>1</featSize>
    <mode>BASIC</mode></featureParams>
  <stageNum>20</stageNum>
  <stages>
    <!-- stage 0 -->
    <_>
      <maxWeakCount>11</maxWeakCount>
      <stageThreshold>-1.4724714756011963e+00</stageThreshold>
      <weakClassifiers>
        <_>
          <internalNodes>
            0 -1 218 -7.4547514319419861e-02</internalNodes>
          <leafValues>
            7.0034247636795044e-01 -4.9006623029708862e-01</leafValues></_>
        <_>
          <internalNodes>
            0 -1 95 3.8267582654953003e-02</internalNodes>
          <leafValues>
            -3.9311656355857849e-01 5.6313014030456543e-01</leafValues></_>
        <_>
          <internalNodes>
            0 -1 538 9.9511751905083656e-03</internalNodes>
          <leafValues>
            -4.4668573141098022e-01 4.6277472376823425e-01</leafValues></_>
        <_>
          <internalNodes>
            0 -1 183 -9.9668815732002258e-02</internalNodes>
          <leafValues>
            -7.7476179599761963e-01 1.7647470533847809e-01</leafValues></_>
        <_>
          <internalNodes>
            0 -1 527 -2.1810740232467651e-02</internalNodes>
          <leafValues>
            4.2549505829811096e-01 -3.1735882163047791e-01</leafValues></_>
        <_>
          <internalNodes>
            0 -1 364 2.1866340190172195e-02</internalNodes>
          <leafValues>
            -2.4651643633842468e-01 5.4358083009719849e-01</leafValues></_>
        <_>
          <internalNodes>
            0 -1 117 -1.6688201576471329e-02</internalNodes>
          <leafValues>
            7.0204895734786987e-01 -1.6590447723865509e-01</leafValues></_>
        <_>
          <internalNodes>
            0 -1 5 -1.5842195600271225e-02</internalNodes>
          <leafValues>
            -6.5044778585433960e-01 1.8153400719165802e-01</leafValues></_>
        <_>
          <internalNodes>
            0 -1 263 3.2975234091281891e-02</internalNodes>
          <leafValues>
            -2.0445725321769714e-01 6.0029089450836182e-01</leafValues></_>
        <_>
          <internalNodes>
            0 -1 419 -8.2555972039699554e-03</internalNodes>
          <leafValues>
            5.1634150743484497e-01 -1.8258357048034668e-01</leafValues></_>
        <_>
          <internalNodes>
            0 -1 369 1.6807347536087036e-01</internalNodes>
          <leafValues>
            -1.2664501368999481e-01 7.8300744295120239e-01</leafValues></_></weakClassifiers></_>
    <!-- stage 1 -->
    <_>
      <maxWeakCount>13</maxWeakCount>
      <stageThreshold>-1.6009806394577026e+00</stageThreshold>
      <weakClassifiers>
        <_>
          <internalNodes>
            0 -1 276 -1.3895109295845032e-02</internalNodes>
          <leafValues>
            6.1852431297302246e-01 -5.0569802522659302e-01</leafValues></_>
        <_>
          <internalNodes>
            0 -1 82 2.2325430065393448e-02</internalNodes>
          <leafValues>
            -4.4928848743438721e-01 4.3751060962677002e-01</leafValues></_>
        <_>
          <internalNodes>
            0 -1 459 -1.4108471572399139e-02</internalNodes>
          <leafValues>
            4.9779063463211060e-01 -3.1849780678749084e-01</leafValues></_>
        <_>
          <internalNodes>
            0 -1 360 -3.4851387143135071e-02</internalNodes>
          <leafValues>
            3.7578785419464111e-01 -4.4891101121902466e-01</leafValues></_>
        <_>
          <internalNodes>
            0 -1 118 -1.6721993684768677e-02</internalNodes>
          <leafValues>
            4.9906972050666809e-01 -2.7850735187530518e-01</leafValues></_>
        <_>
          <internalNodes>
            0 -1 168 -3.0505985021591187e-02</internalNodes>
          <leafValues>
            5.2638685703277588e-01 -2.2477111220359802e-01</leafValues></_>
        <_>
          <internalNodes>
            0 -1 229 -3.2172590494155884e-02</internalNodes>
          <leafValues>
            5.0555855035781860e-01 -2.2306641936302185e-01</leafValues></_>
        <_>
          <internalNodes>
            0 -1 239 -4.1966461576521397e-03</internalNodes>
          <leafValues>
            4.6906435489654541e-01 -2.1558882296085358e-01</leafValues></_>
        <_>
          <internalNodes>
            0 -1 106 -4.2703546583652496e-02</internalNodes>
          <leafValues>
            -5.6700664758682251e-01 2.1816976368427277e-01</leafValues></_>
        <_>
          <internalNodes>
            0 -1 534 -2.1423373371362686e-02</internalNodes>
          <leafValues>
            3.6627370119094849e-01 -3.3441561460494995e-01</leafValues></_>
        <_>
          <internalNodes>
            0 -1 153 3.1598247587680817e-02</internalNodes>
          <leafValues>
            -1.8886147439479828e-01 5.7921677827835083e-01</leafValues></_>
        <_>
          <internalNodes>
            0 -1 539 1.3034745119512081e-02</internalNodes>
          <leafValues>
            -2.4929836392402649e-01 3.7044471502304077e-01</leafValues></_>
        <_>
          <internalNodes>
            0 -1 361 1.5981096029281616e-01</internalNodes>
          <leafValues>
            -1.6573385894298553e-01 5.7200318574905396e-01</leafValues></_></weakClassifiers></_>
    <!-- stage 2 -->
    <_>
      <maxWeakCount>13</maxWeakCount>
      <stageThreshold>-1.3743993043899536e+00</stageThreshold>
      <weakClassifiers>
        <_>
          <internalNodes>
            0 -1 218 -1.1443442106246948e-01</internalNodes>
          <leafValues>
            5.8627265691757202e-01 -3.2965010404586792e-01</leafValues></_>
        <_>
          <internalNodes>
            0 -1 461 -2.6417426764965057e-02</internalNodes>
          <leafValues>
            6.4833343029022217e-01 -2.6754739880561829e-01</leafValues></_>
        <_>
          <internalNodes>
            0 -1 379 -1.0886667296290398e-02</internalNodes>
          <leafValues>
            3.2991972565650940e-01 -4.1970318555831909e-01</leafValues></_>
        <_>
          <internalNodes>
            0 -1 180 -1.1927017942070961e-02</internalNodes>
          <leafValues>
            3.2834461331367493e-01 -4.2669767141342163e-01</leafValues></_>
        <_>
          <internalNodes>
            0 -1 269 -3.9524780586361885e-03</internalNodes>
          <leafValues>
            3.1133419275283813e-01 -3.5090744495391846e-01</leafValues></_>
        <_>
          <internalNodes>
            0 -1 66 -1.1688686907291412e-01</internalNodes>
          <leafValues>
            -6.3209021091461182e-01 1.6366221010684967e-01</leafValues></_>
        <_>
          <internalNodes>
            0 -1 99 -8.4172841161489487e-03</internalNodes>
          <leafValues>
            5.1294648647308350e-01 -1.8634535372257233e-01</leafValues></_>
        <_>
          <internalNodes>
            0 -1 309 -9.3318345025181770e-03</internalNodes>
          <leafValues>
            4.6825692057609558e-01 -2.0515683293342590e-01</leafValues></_>
        <_>
          <internalNodes>
            0 -1 39 1.5240508317947388e-01</internalNodes>
          <leafValues>
            -1.3630248606204987e-01 5.8998590707778931e-01</leafValues></_>
        <_>
          <internalNodes>
            0 -1 446 1.6195856034755707e-02</internalNodes>
          <leafValues>
            -3.8957238197326660e-01 2.5851148366928101e-01</leafValues></_>
        <_>
          <internalNodes>
            0 -1 136 -3.2004499435424805e-01</internalNodes>
          <leafValues>
            -8.1921124458312988e-01 1.1816170811653137e-01</leafValues></_>
        <_>
          <internalNodes>
            0 -1 266 -2.5063486769795418e-02</internalNodes>
          <leafValues>
            4.5355546474456787e-01 -2.2378027439117432e-01</leafValues></_>
        <_>
          <internalNodes>
            0 -1 339 1.4175204560160637e-02</internalNodes>
          <leafValues>
            -2.0189079642295837e-01 4.3279469013214111e-01</leafValues></_></weakClassifiers></_>
    <!-- stage 3 -->
    <_>
      <maxWeakCount>14</maxWeakCount>
      <stageThreshold>-1.3484092950820923e+00</stageThreshold>
      <weakClassifiers>
        <_>
          <internalNodes>
            0 -1 456 -2.6860661804676056e-02</internalNodes>
          <leafValues>
            5.6941652297973633e-01 -2.8978621959686279e-01</leafValues></_>
        <_>
          <internalNodes>
            0 -1 342 -1.0388375073671341e-01</internalNodes>
          <leafValues>
            4.3665975332260132e-01 -3.9001777768135071e-01</leafValues></_>
        <_>
          <internalNodes>
            0 -1 165 3.0802205204963684e-02</internalNodes>
          <leafValues>
            -2.6799029111862183e-01 5.0589936971664429e-01</leafValues></_>
        <_>
          <internalNodes>
            0 -1 109 1.1897902935743332e-01</internalNodes>
          <leafValues>
            1.3131615519523621e-01 -8.0318629741668701e-01</leafValues></_>
        <_>
          <internalNodes>
            0 -1 541 1.1196415871381760e-02</internalNodes>
          <leafValues>
            -2.7118238806724548e-01 4.2202743887901306e-01</leafValues></_>
        <_>
          <internalNodes>
            0 -1 5 -1.7748037353157997e-02</internalNodes>
          <leafValues>
            -6.7781549692153931e-01 1.6758340597152710e-01</leafValues></_>
        <_>
          <internalNodes>
            0 -1 18 3.3019855618476868e-02</internalNodes>
          <leafValues>
            1.5306982398033142e-01 -6.5951895713806152e-01</leafValues></_>
        <_>
          <internalNodes>
            0 -1 94 -1.8002575635910034e-01</internalNodes>
          <leafValues>
            7.3061597347259521e-01 -1.5108588337898254e-01</leafValues></_>
        <_>
          <internalNodes>
            0 -1 279 -7.3830574750900269e-02</internalNodes>
          <leafValues>
            3.9871534705162048e-01 -2.5896301865577698e-01</leafValues></_>
        <_>
          <internalNodes>
            0 -1 39 -1.1148154735565186e-01</internalNodes>
          <leafValues>
            6.2238252162933350e-01 -1.6400972008705139e-01</leafValues></_>
        <_>
          <internalNodes>
            0 -1 214 8.3084255456924438e-02</internalNodes>
          <leafValues>
            -2.4252411723136902e-01 5.1129013299942017e-01</leafValues></_>
        <_>
          <internalNodes>
            0 -1 537 -2.2343806922435760e-02</internalNodes>
          <leafValues>
            2.9490458965301514e-01 -3.2110261917114258e-01</leafValues></_>
        <_>
          <internalNodes>
            0 -1 106 -8.9147895574569702e-02</internalNodes>
          <leafValues>
            -8.0948513746261597e-01 1.4446829259395599e-01</leafValues></_>
        <_>
          <internalNodes>
            0 -1 71 -1.6380645334720612e-02</internalNodes>
          <leafValues>
            3.0184790492057800e-01 -3.2177656888961792e-01</leafValues></_></weakClassifiers></_>
    <!-- stage 4 -->
    <_>
      <maxWeakCount>21</maxWeakCount>
      <stageThreshold>-1.4097769260406494e+00</stageThreshold>
      <weakClassifiers>
        <_>
          <internalNodes>
            0 -1 526 1.3547437265515327e-02</internalNodes>
          <leafValues>
            -3.0259740352630615e-01 4.7803163528442383e-01</leafValues></_>
        <_>
          <internalNodes>
            0 -1 354 6.4538627862930298e-02</internalNodes>
          <leafValues>
            -2.7319541573524475e-01 4.5935386419296265e-01</leafValues></_>
        <_>
          <internalNodes>
            0 -1 103 2.9563514515757561e-02</internalNodes>
          <leafValues>
            -3.3542415499687195e-01 3.4757664799690247e-01</leafValues></_>
        <_>
          <internalNodes>
            0 -1 259 -4.6152587980031967e-02</internalNodes>
          <leafValues>
            3.2118585705757141e-01 -2.5156977772712708e-01</leafValues></_>
        <_>
          <internalNodes>
            0 -1 30 -1.4285091310739517e-02</internalNodes>
          <leafValues>
            -5.1487445831298828e-01 1.8618185818195343e-01</leafValues></_>
        <_>
          <internalNodes>
            0 -1 162 -2.5085024535655975e-02</internalNodes>
          <leafValues>
            3.2240846753120422e-01 -2.6209449768066406e-01</leafValues></_>
        <_>
          <internalNodes>
            0 -1 195 -1.3905827701091766e-01</internalNodes>
          <leafValues>
            -7.9753839969635010e-01 9.4517752528190613e-02</leafValues></_>
        <_>
          <internalNodes>
            0 -1 505 8.7787816300988197e-03</internalNodes>
          <leafValues>
            1.2843264639377594e-01 -5.2612870931625366e-01</leafValues></_>
        <_>
          <internalNodes>
            0 -1 467 -2.2392222657799721e-02</internalNodes>
          <leafValues>
            3.5079532861709595e-01 -1.9945706427097321e-01</leafValues></_>
        <_>
          <internalNodes>
            0 -1 486 -2.6605255901813507e-02</internalNodes>
          <leafValues>
            4.7550353407859802e-01 -1.6242057085037231e-01</leafValues></_>
        <_>
          <internalNodes>
            0 -1 166 -2.8368175029754639e-02</internalNodes>
          <leafValues>
            3.4947466850280762e-01 -1.9520048797130585e-01</leafValues></_>
        <_>
          <internalNodes>
            0 -1 262 3.6385338753461838e-02</internalNodes>
          <leafValues>
            -1.2591607868671417e-01 5.7444882392883301e-01</leafValues></_>
        <_>
          <internalNodes>
            0 -1 34 1.0736806318163872e-02</internalNodes>
          <leafValues>
            1.6493923962116241e-01 -4.9929049611091614e-01</leafValues></_>
        <_>
          <internalNodes>
            0 -1 453 3.7533905357122421e-02</internalNodes>
          <leafValues>
            -2.2026230394840240e-01 3.9352509379386902e-01</leafValues></_>
        <_>
          <internalNodes>
            0 -1 163 3.8742393255233765e-02</internalNodes>
          <leafValues>
            -1.2388937175273895e-01 5.9860950708389282e-01</leafValues></_>
        <_>
          <internalNodes>
            0 -1 383 -6.7354328930377960e-03</internalNodes>
          <leafValues>
            4.0307578444480896e-01 -1.6608832776546478e-01</leafValues></_>
        <_>
          <internalNodes>
            0 -1 314 -4.0728156454861164e-03</internalNodes>
          <leafValues>
            3.8843467831611633e-01 -1.7031393945217133e-01</leafValues></_>
        <_>
          <internalNodes>
            0 -1 0 -7.1950890123844147e-03</internalNodes>
          <leafValues>
            -7.1294212341308594e-01 1.0435404628515244e-01</leafValues></_>
        <_>
          <internalNodes>
            0 -1 4 4.9875234253704548e-03</internalNodes>
          <leafValues>
            1.8113411962985992e-01 -3.9944654703140259e-01</leafValues></_>
        <_>
          <internalNodes>
            0 -1 283 -1.7364710569381714e-02</internalNodes>
          <leafValues>
            2.2633841633796692e-01 -3.3069878816604614e-01</leafValues></_>
        <_>
          <internalNodes>
            0 -1 118 -2.2488299757242203e-02</internalNodes>
          <leafValues>
            4.3607991933822632e-01 -1.7182651162147522e-01</leafValues></_></weakClassifiers></_>
    <!-- stage 5 -->
    <_>
      <maxWeakCount>24</maxWeakCount>
      <stageThreshold>-1.2422541379928589e+00</stageThreshold>
      <weakClassifiers>
        <_>
          <internalNodes>
            0 -1 204 2.6988945901393890e-02</internalNodes>
          <leafValues>
            -3.1060045957565308e-01 3.7396538257598877e-01</leafValues></_>
        <_>
          <internalNodes>
            0 -1 452 -7.0061072707176208e-02</internalNodes>
          <leafValues>
            6.4072287082672119e-01 -1.5563158690929413e-01</leafValues></_>
        <_>
          <internalNodes>
            0 -1 81 -4.3825905770063400e-02</internalNodes>
          <leafValues>
            2.4928492307662964e-01 -3.3821874856948853e-01</leafValues></_>
        <_>
          <internalNodes>
            0 -1 379 -1.1084262281656265e-02</internalNodes>
          <leafValues>
            2.4413514137268066e-01 -3.1878432631492615e-01</leafValues></_>
        <_>
          <internalNodes>
            0 -1 170 -2.1772293746471405e-01</internalNodes>
          <leafValues>
            -7.0381331443786621e-01 1.4449137449264526e-01</leafValues></_>
        <_>
          <internalNodes>
            0 -1 39 1.8542630970478058e-01</internalNodes>
          <leafValues>
            -1.8140387535095215e-01 5.7999354600906372e-01</leafValues></_>
        <_>
          <internalNodes>
            0 -1 106 -1.0629711300134659e-01</internalNodes>
          <leafValues>
            -7.8879076242446899e-01 9.5300681889057159e-02</leafValues></_>
        <_>
          <internalNodes>
            0 -1 51 -2.0647786557674408e-02</internalNodes>
          <leafValues>
            2.2877021133899689e-01 -3.0380487442016602e-01</leafValues></_>
        <_>
          <internalNodes>
            0 -1 7 -1.3668795116245747e-02</internalNodes>
          <leafValues>
            -5.1321637630462646e-01 1.2888261675834656e-01</leafValues></_>
        <_>
          <internalNodes>
            0 -1 513 2.2058621048927307e-02</internalNodes>
          <leafValues>
            -2.5540003180503845e-01 2.9954704642295837e-01</leafValues></_>
        <_>
          <internalNodes>
            0 -1 496 -1.3245151378214359e-02</internalNodes>
          <leafValues>
            2.2176472842693329e-01 -2.9086825251579285e-01</leafValues></_>
        <_>
          <internalNodes>
            0 -1 96 -2.8842437267303467e-01</internalNodes>
          <leafValues>
            5.8435577154159546e-01 -9.8381496965885162e-02</leafValues></_>
        <_>
          <internalNodes>
            0 -1 129 1.3631897047162056e-02</internalNodes>
          <leafValues>
            7.8577205538749695e-02 -7.7453392744064331e-01</leafValues></_>
        <_>
          <internalNodes>
            0 -1 156 2.2146513685584068e-02</internalNodes>
          <leafValues>
            -1.7645145952701569e-01 3.6191248893737793e-01</leafValues></_>
        <_>
          <internalNodes>
            0 -1 501 -5.0936173647642136e-03</internalNodes>
          <leafValues>
            -4.9295577406883240e-01 1.2530227005481720e-01</leafValues></_>
        <_>
          <internalNodes>
            0 -1 266 -3.9225853979587555e-02</internalNodes>
          <leafValues>
            5.0309598445892334e-01 -1.4297276735305786e-01</leafValues></_>
        <_>
          <internalNodes>
            0 -1 339 3.5160489380359650e-02</internalNodes>
          <leafValues>
            -1.1383420974016190e-01 5.1878762245178223e-01</leafValues></_>
        <_>
          <internalNodes>
            0 -1 445 -1.1067901737987995e-02</internalNodes>
          <leafValues>
            -4.1906642913818359e-01 1.5682522952556610e-01</leafValues></_>
        <_>
          <internalNodes>
            0 -1 141 -4.6998966485261917e-02</internalNodes>
          <leafValues>
            2.9165285825729370e-01 -2.0662181079387665e-01</leafValues></_>
        <_>
          <internalNodes>
            0 -1 477 1.1401439085602760e-02</internalNodes>
          <leafValues>
            9.6111007034778595e-02 -6.2619704008102417e-01</leafValues></_>
        <_>
          <internalNodes>
            0 -1 366 -1.0226112790405750e-02</internalNodes>
          <leafValues>
            2.7483403682708740e-01 -2.0934042334556580e-01</leafValues></_>
        <_>
          <internalNodes>
            0 -1 363 1.6660295426845551e-02</internalNodes>
          <leafValues>
            -9.7649730741977692e-02 7.5018411874771118e-01</leafValues></_>
        <_>
          <internalNodes>
            0 -1 399 -3.1508907675743103e-02</internalNodes>
          <leafValues>
            -5.6538468599319458e-01 1.1325487494468689e-01</leafValues></_>
        <_>
          <internalNodes>
            0 -1 434 3.2802317291498184e-03</internalNodes>
          <leafValues>
            -1.6469039022922516e-01 2.9973778128623962e-01</leafValues></_></weakClassifiers></_>
    <!-- stage 6 -->
    <_>
      <maxWeakCount>25</maxWeakCount>
      <stageThreshold>-1.2522867918014526e+00</stageThreshold>
      <weakClassifiers>
        <_>
          <internalNodes>
            0 -1 218 -1.2395516037940979e-01</internalNodes>
          <leafValues>
            4.8490566015243530e-01 -2.6946848630905151e-01</leafValues></_>
        <_>
          <internalNodes>
            0 -1 101 -2.8358085546642542e-03</internalNodes>
          <leafValues>
            2.1020783483982086e-01 -4.8770824074745178e-01</leafValues></_>
        <_>
          <internalNodes>
            0 -1 64 -5.9821069240570068e-02</internalNodes>
          <leafValues>
            4.8182255029678345e-01 -1.6484335064888000e-01</leafValues></_>
        <_>
          <internalNodes>
            0 -1 538 8.9101875200867653e-03</internalNodes>
          <leafValues>
            -3.8576686382293701e-01 1.9298803806304932e-01</leafValues></_>
        <_>
          <internalNodes>
            0 -1 47 -6.0498982667922974e-02</internalNodes>
          <leafValues>
            4.1384345293045044e-01 -1.5145060420036316e-01</leafValues></_>
        <_>
          <internalNodes>
            0 -1 38 1.0743844509124756e-01</internalNodes>
          <leafValues>
            -1.4357799291610718e-01 6.4809161424636841e-01</leafValues></_>
        <_>
          <internalNodes>
            0 -1 500 4.9370536580681801e-03</internalNodes>
          <leafValues>
            1.4203408360481262e-01 -5.2610677480697632e-01</leafValues></_>
        <_>
          <internalNodes>
            0 -1 395 1.1898057535290718e-02</internalNodes>
          <leafValues>
            -2.2444644570350647e-01 2.7661597728729248e-01</leafValues></_>
        <_>
          <internalNodes>
            0 -1 223 -4.6505301725119352e-04</internalNodes>
          <leafValues>
            1.7397651076316833e-01 -3.5272425413131714e-01</leafValues></_>
        <_>
          <internalNodes>
            0 -1 282 1.4446282386779785e-01</internalNodes>
          <leafValues>
            -7.5827702879905701e-02 7.0976215600967407e-01</leafValues></_>
        <_>
          <internalNodes>
            0 -1 359 -1.1406023986637592e-02</internalNodes>
          <leafValues>
            2.0890869200229645e-01 -3.7644699215888977e-01</leafValues></_>
        <_>
          <internalNodes>
            0 -1 145 1.9652047753334045e-01</internalNodes>
          <leafValues>
            -9.8381474614143372e-02 7.1724647283554077e-01</leafValues></_>
        <_>
          <internalNodes>
            0 -1 409 2.7965512126684189e-02</internalNodes>
          <leafValues>
            -1.9499811530113220e-01 2.8736832737922668e-01</leafValues></_>
        <_>
          <internalNodes>
            0 -1 517 -4.0989257395267487e-03</internalNodes>
          <leafValues>
            -5.2511662244796753e-01 1.1531806737184525e-01</leafValues></_>
        <_>
          <internalNodes>
            0 -1 178 1.1499239131808281e-02</internalNodes>
          <leafValues>
            -2.2491547465324402e-01 2.7385649085044861e-01</leafValues></_>
        <_>
          <internalNodes>
            0 -1 517 5.0529311411082745e-03</internalNodes>
          <leafValues>
            1.1445543169975281e-01 -5.0745242834091187e-01</leafValues></_>
        <_>
          <internalNodes>
            0 -1 422 7.2150811553001404e-02</internalNodes>
          <leafValues>
            -8.5847206413745880e-02 6.7749333381652832e-01</leafValues></_>
        <_>
          <internalNodes>
            0 -1 37 -1.7843745648860931e-01</internalNodes>
          <leafValues>
            3.1717264652252197e-01 -1.8283879756927490e-01</leafValues></_>
        <_>
          <internalNodes>
            0 -1 229 -3.4391410648822784e-02</internalNodes>
          <leafValues>
            3.5479873418807983e-01 -1.7213943600654602e-01</leafValues></_>
        <_>
          <internalNodes>
            0 -1 416 3.0301578342914581e-02</internalNodes>
          <leafValues>
            -1.1800105124711990e-01 4.6820092201232910e-01</leafValues></_>
        <_>
          <internalNodes>
            0 -1 408 -1.1520734988152981e-02</internalNodes>
          <leafValues>
            3.1914851069450378e-01 -2.0981621742248535e-01</leafValues></_>
        <_>
          <internalNodes>
            0 -1 503 4.0054558776319027e-03</internalNodes>
          <leafValues>
            1.1513751000165939e-01 -5.4110485315322876e-01</leafValues></_>
        <_>
          <internalNodes>
            0 -1 259 -3.1328566372394562e-02</internalNodes>
          <leafValues>
            2.6094225049018860e-01 -2.1260137856006622e-01</leafValues></_>
        <_>
          <internalNodes>
            0 -1 373 -2.0489148795604706e-02</internalNodes>
          <leafValues>
            5.4464048147201538e-01 -1.0396321117877960e-01</leafValues></_>
        <_>
          <internalNodes>
            0 -1 287 7.6414093375205994e-02</internalNodes>
          <leafValues>
            8.2797929644584656e-02 -7.9992568492889404e-01</leafValues></_></weakClassifiers></_>
    <!-- stage 7 -->
    <_>
      <maxWeakCount>30</maxWeakCount>
      <stageThreshold>-1.1949342489242554e+00</stageThreshold>
      <weakClassifiers>
        <_>
          <internalNodes>
            0 -1 35 -2.9398258775472641e-02</internalNodes>
          <leafValues>
            3.2724505662918091e-01 -2.5806450843811035e-01</leafValues></_>
        <_>
          <internalNodes>
            0 -1 92 1.9192207604646683e-02</internalNodes>
          <leafValues>
            -2.8889590501785278e-01 2.3609077930450439e-01</leafValues></_>
        <_>
          <internalNodes>
            0 -1 461 -3.4014858305454254e-02</internalNodes>
          <leafValues>
            4.1589963436126709e-01 -1.6908828914165497e-01</leafValues></_>
        <_>
          <internalNodes>
            0 -1 348 -4.6108670532703400e-02</internalNodes>
          <leafValues>
            2.0536896586418152e-01 -3.0678004026412964e-01</leafValues></_>
        <_>
          <internalNodes>
            0 -1 134 1.6385868191719055e-01</internalNodes>
          <leafValues>
            -1.0650635510683060e-01 5.8848333358764648e-01</leafValues></_>
        <_>
          <internalNodes>
            0 -1 503 -5.2182069048285484e-03</internalNodes>
          <leafValues>
            -5.5771678686141968e-01 1.5691229701042175e-01</leafValues></_>
        <_>
          <internalNodes>
            0 -1 126 7.2547160089015961e-03</internalNodes>
          <leafValues>
            6.3482783734798431e-02 -5.6273365020751953e-01</leafValues></_>
        <_>
          <internalNodes>
            0 -1 217 2.1477799862623215e-02</internalNodes>
          <leafValues>
            -2.0983107388019562e-01 2.8619897365570068e-01</leafValues></_>
        <_>
          <internalNodes>
            0 -1 125 -2.3460026830434799e-02</internalNodes>
          <leafValues>
            -6.2201482057571411e-01 9.3642294406890869e-02</leafValues></_>
        <_>
          <internalNodes>
            0 -1 285 -1.1063740588724613e-02</internalNodes>
          <leafValues>
            -4.2395395040512085e-01 1.1811636388301849e-01</leafValues></_>
        <_>
          <internalNodes>
            0 -1 13 -2.2800950333476067e-02</internalNodes>
          <leafValues>
            -4.1488417983055115e-01 1.1165904253721237e-01</leafValues></_>
        <_>
          <internalNodes>
            0 -1 6 2.6291929185390472e-02</internalNodes>
          <leafValues>
            9.9107295274734497e-02 -5.1852113008499146e-01</leafValues></_>
        <_>
          <internalNodes>
            0 -1 266 4.2222715914249420e-02</internalNodes>
          <leafValues>
            -1.0781711339950562e-01 4.4974541664123535e-01</leafValues></_>
        <_>
          <internalNodes>
            0 -1 265 -5.3563706576824188e-02</internalNodes>
          <leafValues>
            2.8497362136840820e-01 -2.1758598089218140e-01</leafValues></_>
        <_>
          <internalNodes>
            0 -1 319 2.9670595540665090e-04</internalNodes>
          <leafValues>
            -2.7086752653121948e-01 1.7847971618175507e-01</leafValues></_>
        <_>
          <internalNodes>
            0 -1 534 -1.8240582197904587e-02</internalNodes>
          <leafValues>
            2.2544363141059875e-01 -2.2842797636985779e-01</leafValues></_>
        <_>
          <internalNodes>
            0 -1 369 1.4044719934463501e-01</internalNodes>
          <leafValues>
            -1.0461369156837463e-01 5.3209388256072998e-01</leafValues></_>
        <_>
          <internalNodes>
            0 -1 368 -1.8551466986536980e-02</internalNodes>
          <leafValues>
            3.1948193907737732e-01 -1.6085541248321533e-01</leafValues></_>
        <_>
          <internalNodes>
            0 -1 407 -7.3351059108972549e-03</internalNodes>
          <leafValues>
            1.9012050330638885e-01 -2.6158139109611511e-01</leafValues></_>
        <_>
          <internalNodes>
            0 -1 358 -7.8946631401777267e-03</internalNodes>
          <leafValues>
            -6.0778826475143433e-01 8.9365206658840179e-02</leafValues></_>
        <_>
          <internalNodes>
            0 -1 543 -1.2881201691925526e-02</internalNodes>
          <leafValues>
            -6.1913537979125977e-01 6.4642630517482758e-02</leafValues></_>
        <_>
          <internalNodes>
            0 -1 445 1.8052190542221069e-02</internalNodes>
          <leafValues>
            8.0952346324920654e-02 -4.9761474132537842e-01</leafValues></_>
        <_>
          <internalNodes>
            0 -1 278 2.2421400994062424e-02</internalNodes>
          <leafValues>
            -1.0878804326057434e-01 4.9814781546592712e-01</leafValues></_>
        <_>
          <internalNodes>
            0 -1 32 -2.7153328061103821e-02</internalNodes>
          <leafValues>
            2.1584805846214294e-01 -2.0447322726249695e-01</leafValues></_>
        <_>
          <internalNodes>
            0 -1 39 2.0979130268096924e-01</internalNodes>
          <leafValues>
            -9.8784901201725006e-02 5.7685959339141846e-01</leafValues></_>
        <_>
          <internalNodes>
            0 -1 146 -7.1133039891719818e-02</internalNodes>
          <leafValues>
            2.9409432411193848e-01 -1.4227762818336487e-01</leafValues></_>
        <_>
          <internalNodes>
            0 -1 529 8.9755943045020103e-03</internalNodes>
          <leafValues>
            -2.4316954612731934e-01 1.7039373517036438e-01</leafValues></_>
        <_>
          <internalNodes>
            0 -1 522 1.2509137392044067e-02</internalNodes>
          <leafValues>
            9.1822028160095215e-02 -5.3210103511810303e-01</leafValues></_>
        <_>
          <internalNodes>
            0 -1 433 -1.3269776105880737e-01</internalNodes>
          <leafValues>
            -7.7077567577362061e-01 4.3464425951242447e-02</leafValues></_>
        <_>
          <internalNodes>
            0 -1 511 -7.4637699872255325e-03</internalNodes>
          <leafValues>
            -7.3535823822021484e-01 4.4445320963859558e-02</leafValues></_></weakClassifiers></_>
    <!-- stage 8 -->
    <_>
      <maxWeakCount>30</maxWeakCount>
      <stageThreshold>-1.1769437789916992e+00</stageThreshold>
      <weakClassifiers>
        <_>
          <internalNodes>
            0 -1 127 -5.3973961621522903e-03</internalNodes>
          <leafValues>
            -5.5882352590560913e-01 1.7900656163692474e-01</leafValues></_>
        <_>
          <internalNodes>
            0 -1 268 -1.8047791719436646e-01</internalNodes>
          <leafValues>
            2.8776538372039795e-01 -2.9169228672981262e-01</leafValues></_>
        <_>
          <internalNodes>
            0 -1 542 1.5331679023802280e-03</internalNodes>
          <leafValues>
            -3.1719127297401428e-01 2.2716775536537170e-01</leafValues></_>
        <_>
          <internalNodes>
            0 -1 521 5.3772320970892906e-03</internalNodes>
          <leafValues>
            5.8377120643854141e-02 -6.1548006534576416e-01</leafValues></_>
        <_>
          <internalNodes>
            0 -1 180 -1.7095362767577171e-02</internalNodes>
          <leafValues>
            1.8238182365894318e-01 -3.1189587712287903e-01</leafValues></_>
        <_>
          <internalNodes>
            0 -1 511 5.7645551860332489e-03</internalNodes>
          <leafValues>
            6.5399304032325745e-02 -6.4865165948867798e-01</leafValues></_>
        <_>
          <internalNodes>
            0 -1 341 -4.6238232403993607e-02</internalNodes>
          <leafValues>
            2.7164548635482788e-01 -1.9463580846786499e-01</leafValues></_>
        <_>
          <internalNodes>
            0 -1 352 1.5350422263145447e-01</internalNodes>
          <leafValues>
            -1.3011114299297333e-01 6.1022293567657471e-01</leafValues></_>
        <_>
          <internalNodes>
            0 -1 55 -1.6140671446919441e-02</internalNodes>
          <leafValues>
            2.4445146322250366e-01 -2.2979342937469482e-01</leafValues></_>
        <_>
          <internalNodes>
            0 -1 98 -1.9642619416117668e-02</internalNodes>
          <leafValues>
            -4.3608781695365906e-01 1.0852814465761185e-01</leafValues></_>
        <_>
          <internalNodes>
            0 -1 555 -3.9690032601356506e-02</internalNodes>
          <leafValues>
            3.2611140608787537e-01 -1.6206890344619751e-01</leafValues></_>
        <_>
          <internalNodes>
            0 -1 470 -1.1439051479101181e-02</internalNodes>
          <leafValues>
            2.4061763286590576e-01 -2.2818703949451447e-01</leafValues></_>
        <_>
          <internalNodes>
            0 -1 84 -3.3559548854827881e-01</internalNodes>
          <leafValues>
            4.5905190706253052e-01 -1.0909339040517807e-01</leafValues></_>
        <_>
          <internalNodes>
            0 -1 256 2.0462300628423691e-02</internalNodes>
          <leafValues>
            -1.2200403213500977e-01 4.7009277343750000e-01</leafValues></_>
        <_>
          <internalNodes>
            0 -1 17 2.6810556650161743e-02</internalNodes>
          <leafValues>
            1.0138268768787384e-01 -6.0115945339202881e-01</leafValues></_>
        <_>
          <internalNodes>
            0 -1 39 -9.1939046978950500e-02</internalNodes>
          <leafValues>
            3.3641871809959412e-01 -1.6433641314506531e-01</leafValues></_>
        <_>
          <internalNodes>
            0 -1 108 -6.1402931809425354e-02</internalNodes>
          <leafValues>
            -8.0272287130355835e-01 8.2249134778976440e-02</leafValues></_>
        <_>
          <internalNodes>
            0 -1 27 7.4009001255035400e-03</internalNodes>
          <leafValues>
            6.4979277551174164e-02 -6.0498833656311035e-01</leafValues></_>
        <_>
          <internalNodes>
            0 -1 91 -3.1201213598251343e-02</internalNodes>
          <leafValues>
            2.6103958487510681e-01 -1.8648517131805420e-01</leafValues></_>
        <_>
          <internalNodes>
            0 -1 275 -1.0007766634225845e-01</internalNodes>
          <leafValues>
            2.4124827980995178e-01 -2.0855794847011566e-01</leafValues></_>
        <_>
          <internalNodes>
            0 -1 269 -4.1018975898623466e-03</internalNodes>
          <leafValues>
            1.7625579237937927e-01 -2.8122216463088989e-01</leafValues></_>
        <_>
          <internalNodes>
            0 -1 280 8.1857807934284210e-02</internalNodes>
          <leafValues>
            -1.1389597505331039e-01 4.8555630445480347e-01</leafValues></_>
        <_>
          <internalNodes>
            0 -1 0 -8.5450736805796623e-03</internalNodes>
          <leafValues>
            -7.1216839551925659e-01 8.5107363760471344e-02</leafValues></_>
        <_>
          <internalNodes>
            0 -1 443 -1.2473670765757561e-02</internalNodes>
          <leafValues>
            -4.6338486671447754e-01 7.8145936131477356e-02</leafValues></_>
        <_>
          <internalNodes>
            0 -1 498 -8.5783973336219788e-03</internalNodes>
          <leafValues>
            3.3008542656898499e-01 -1.2513057887554169e-01</leafValues></_>
        <_>
          <internalNodes>
            0 -1 25 -4.7973829507827759e-01</internalNodes>
          <leafValues>
            -8.1607145071029663e-01 5.7839613407850266e-02</leafValues></_>
        <_>
          <internalNodes>
            0 -1 345 7.9652115702629089e-02</internalNodes>
          <leafValues>
            -2.0641407370567322e-01 2.5080844759941101e-01</leafValues></_>
        <_>
          <internalNodes>
            0 -1 475 -9.5877368003129959e-03</internalNodes>
          <leafValues>
            -5.4131227731704712e-01 7.0079796016216278e-02</leafValues></_>
        <_>
          <internalNodes>
            0 -1 167 -6.4162120223045349e-02</internalNodes>
          <leafValues>
            3.2739692926406860e-01 -1.2084206193685532e-01</leafValues></_>
        <_>
          <internalNodes>
            0 -1 179 3.5296294838190079e-02</internalNodes>
          <leafValues>
            -5.6347899138927460e-02 6.4783942699432373e-01</leafValues></_></weakClassifiers></_>
    <!-- stage 9 -->
    <_>
      <maxWeakCount>34</maxWeakCount>
      <stageThreshold>-1.0994428396224976e+00</stageThreshold>
      <weakClassifiers>
        <_>
          <internalNodes>
            0 -1 218 -1.5863284468650818e-01</internalNodes>
          <leafValues>
            4.6401986479759216e-01 -1.5811966359615326e-01</leafValues></_>
        <_>
          <internalNodes>
            0 -1 102 -5.2970219403505325e-03</internalNodes>
          <leafValues>
            1.6952477395534515e-01 -4.0210941433906555e-01</leafValues></_>
        <_>
          <internalNodes>
            0 -1 540 6.3253310509026051e-04</internalNodes>
          <leafValues>
            -3.9669525623321533e-01 1.6021862626075745e-01</leafValues></_>
        <_>
          <internalNodes>
            0 -1 326 1.5756463108118623e-04</internalNodes>
          <leafValues>
            -3.2914727926254272e-01 2.0261691510677338e-01</leafValues></_>
        <_>
          <internalNodes>
            0 -1 215 -1.1040913872420788e-02</internalNodes>
          <leafValues>
            1.4903071522712708e-01 -3.1248435378074646e-01</leafValues></_>
        <_>
          <internalNodes>
            0 -1 30 -1.8859727308154106e-02</internalNodes>
          <leafValues>
            -5.7778239250183105e-01 5.3775753825902939e-02</leafValues></_>
        <_>
          <internalNodes>
            0 -1 452 -5.0650246441364288e-02</internalNodes>
          <leafValues>
            3.4066632390022278e-01 -1.3967448472976685e-01</leafValues></_>
        <_>
          <internalNodes>
            0 -1 338 1.9449595361948013e-02</internalNodes>
          <leafValues>
            -1.0597758740186691e-01 4.4454908370971680e-01</leafValues></_>
        <_>
          <internalNodes>
            0 -1 338 -1.7497442662715912e-02</internalNodes>
          <leafValues>
            4.4483223557472229e-01 -1.3798868656158447e-01</leafValues></_>
        <_>
          <internalNodes>
            0 -1 15 -5.9619724750518799e-02</internalNodes>
          <leafValues>
            2.2955746948719025e-01 -2.4621370434761047e-01</leafValues></_>
        <_>
          <internalNodes>
            0 -1 169 -6.4305871725082397e-02</internalNodes>
          <leafValues>
            5.5829566717147827e-01 -9.0039305388927460e-02</leafValues></_>
        <_>
          <internalNodes>
            0 -1 537 -2.8563298285007477e-02</internalNodes>
          <leafValues>
            1.7913153767585754e-01 -2.5434055924415588e-01</leafValues></_>
        <_>
          <internalNodes>
            0 -1 120 -2.8515182435512543e-02</internalNodes>
          <leafValues>
            -6.8373543024063110e-01 7.6655231416225433e-02</leafValues></_>
        <_>
          <internalNodes>
            0 -1 202 2.2777718305587769e-01</internalNodes>
          <leafValues>
            8.1813566386699677e-02 -5.2483487129211426e-01</leafValues></_>
        <_>
          <internalNodes>
            0 -1 502 7.7305510640144348e-03</internalNodes>
          <leafValues>
            6.9380447268486023e-02 -4.9211570620536804e-01</leafValues></_>
        <_>
          <internalNodes>
            0 -1 502 -4.9181543290615082e-03</internalNodes>
          <leafValues>
            -3.9929357171058655e-01 9.7857438027858734e-02</leafValues></_>
        <_>
          <internalNodes>
            0 -1 347 5.0862550735473633e-02</internalNodes>
          <leafValues>
            4.7439325600862503e-02 -6.5263259410858154e-01</leafValues></_>
        <_>
          <internalNodes>
            0 -1 230 -2.2015812993049622e-01</internalNodes>
          <leafValues>
            -6.6808962821960449e-01 5.3441271185874939e-02</leafValues></_>
        <_>
          <internalNodes>
            0 -1 360 -4.1900888085365295e-02</internalNodes>
          <leafValues>
            1.6214303672313690e-01 -2.4199296534061432e-01</leafValues></_>
        <_>
          <internalNodes>
            0 -1 281 2.2400286793708801e-01</internalNodes>
          <leafValues>
            -7.7192634344100952e-02 6.8129205703735352e-01</leafValues></_>
        <_>
          <internalNodes>
            0 -1 112 -5.7582490146160126e-02</internalNodes>
          <leafValues>
            -8.4936124086380005e-01 5.3421691060066223e-02</leafValues></_>
        <_>
          <internalNodes>
            0 -1 218 1.0452795028686523e-01</internalNodes>
          <leafValues>
            -6.1872243881225586e-02 7.1846443414688110e-01</leafValues></_>
        <_>
          <internalNodes>
            0 -1 23 -6.2760874629020691e-02</internalNodes>
          <leafValues>
            -3.8919413089752197e-01 9.7997114062309265e-02</leafValues></_>
        <_>
          <internalNodes>
            0 -1 455 -1.7668677901383489e-04</internalNodes>
          <leafValues>
            1.5017269551753998e-01 -2.6183015108108521e-01</leafValues></_>
        <_>
          <internalNodes>
            0 -1 165 6.0875527560710907e-02</internalNodes>
          <leafValues>
            -9.0668052434921265e-02 3.9515933394432068e-01</leafValues></_>
        <_>
          <internalNodes>
            0 -1 93 -1.2825064361095428e-01</internalNodes>
          <leafValues>
            3.4104007482528687e-01 -1.2195913493633270e-01</leafValues></_>
        <_>
          <internalNodes>
            0 -1 147 1.8775506317615509e-01</internalNodes>
          <leafValues>
            -6.4933069050312042e-02 5.4311108589172363e-01</leafValues></_>
        <_>
          <internalNodes>
            0 -1 417 1.0575707256793976e-01</internalNodes>
          <leafValues>
            -7.8061848878860474e-02 4.9016612768173218e-01</leafValues></_>
        <_>
          <internalNodes>
            0 -1 386 -9.3239620327949524e-03</internalNodes>
          <leafValues>
            2.4308961629867554e-01 -1.5240569412708282e-01</leafValues></_>
        <_>
          <internalNodes>
            0 -1 12 1.4575956389307976e-02</internalNodes>
          <leafValues>
            6.3885413110256195e-02 -5.4308927059173584e-01</leafValues></_>
        <_>
          <internalNodes>
            0 -1 431 5.5601328611373901e-02</internalNodes>
          <leafValues>
            5.7672414928674698e-02 -5.7675647735595703e-01</leafValues></_>
        <_>
          <internalNodes>
            0 -1 471 -5.4011819884181023e-04</internalNodes>
          <leafValues>
            1.5415303409099579e-01 -2.5635623931884766e-01</leafValues></_>
        <_>
          <internalNodes>
            0 -1 40 6.6331100463867188e-01</internalNodes>
          <leafValues>
            4.8864565789699554e-02 -8.8493889570236206e-01</leafValues></_>
        <_>
          <internalNodes>
            0 -1 160 -2.7756074070930481e-01</internalNodes>
          <leafValues>
            -6.6346895694732666e-01 4.3987516313791275e-02</leafValues></_></weakClassifiers></_>
    <!-- stage 10 -->
    <_>
      <maxWeakCount>38</maxWeakCount>
      <stageThreshold>-1.0503555536270142e+00</stageThreshold>
      <weakClassifiers>
        <_>
          <internalNodes>
            0 -1 26 3.0337398871779442e-02</internalNodes>
          <leafValues>
            -2.4492979049682617e-01 2.8080227971076965e-01</leafValues></_>
        <_>
          <internalNodes>
            0 -1 435 3.9928099140524864e-03</internalNodes>
          <leafValues>
            -2.4480645358562469e-01 2.7010351419448853e-01</leafValues></_>
        <_>
          <internalNodes>
            0 -1 123 -6.2543237581849098e-03</internalNodes>
          <leafValues>
            2.3381707072257996e-01 -2.0234791934490204e-01</leafValues></_>
        <_>
          <internalNodes>
            0 -1 332 4.1041099466383457e-03</internalNodes>
          <leafValues>
            1.0742269456386566e-01 -4.2947754263877869e-01</leafValues></_>
        <_>
          <internalNodes>
            0 -1 20 -2.2855825722217560e-02</internalNodes>
          <leafValues>
            -3.8010454177856445e-01 1.3131949305534363e-01</leafValues></_>
        <_>
          <internalNodes>
            0 -1 307 -2.9197093099355698e-02</internalNodes>
          <leafValues>
            1.4032338559627533e-01 -2.9359138011932373e-01</leafValues></_>
        <_>
          <internalNodes>
            0 -1 78 -2.1001495420932770e-02</internalNodes>
          <leafValues>
            2.9589784145355225e-01 -1.3149194419384003e-01</leafValues></_>
        <_>
          <internalNodes>
            0 -1 171 -2.4356231093406677e-02</internalNodes>
          <leafValues>
            3.5388034582138062e-01 -1.3502638041973114e-01</leafValues></_>
        <_>
          <internalNodes>
            0 -1 56 -1.2871202081441879e-02</internalNodes>
          <leafValues>
            2.3888187110424042e-01 -2.0063742995262146e-01</leafValues></_>
        <_>
          <internalNodes>
            0 -1 39 -1.5521106123924255e-01</internalNodes>
          <leafValues>
            4.0800258517265320e-01 -1.3033914566040039e-01</leafValues></_>
        <_>
          <internalNodes>
            0 -1 365 -6.8049905821681023e-03</internalNodes>
          <leafValues>
            1.5834434330463409e-01 -3.3868277072906494e-01</leafValues></_>
        <_>
          <internalNodes>
            0 -1 514 -2.0640671253204346e-02</internalNodes>
          <leafValues>
            -3.9683291316032410e-01 1.4619491994380951e-01</leafValues></_>
        <_>
          <internalNodes>
            0 -1 337 -1.0212013125419617e-01</internalNodes>
          <leafValues>
            -8.5861641168594360e-01 4.6191546134650707e-03</leafValues></_>
        <_>
          <internalNodes>
            0 -1 67 -3.7802827358245850e-01</internalNodes>
          <leafValues>
            -8.8639789819717407e-01 4.4766563922166824e-02</leafValues></_>
        <_>
          <internalNodes>
            0 -1 506 2.2777549922466278e-02</internalNodes>
          <leafValues>
            4.9887865781784058e-02 -6.4870440959930420e-01</leafValues></_>
        <_>
          <internalNodes>
            0 -1 70 -2.6933733373880386e-02</internalNodes>
          <leafValues>
            3.9538577198982239e-01 -9.5065325498580933e-02</leafValues></_>
        <_>
          <internalNodes>
            0 -1 546 -3.7881149910390377e-04</internalNodes>
          <leafValues>
            1.9718898832798004e-01 -1.9472298026084900e-01</leafValues></_>
        <_>
          <internalNodes>
            0 -1 293 -1.1536752805113792e-02</internalNodes>
          <leafValues>
            1.6796459257602692e-01 -2.1815891563892365e-01</leafValues></_>
        <_>
          <internalNodes>
            0 -1 475 9.9091455340385437e-03</internalNodes>
          <leafValues>
            9.2209465801715851e-02 -4.3876975774765015e-01</leafValues></_>
        <_>
          <internalNodes>
            0 -1 484 -4.0535805746912956e-03</internalNodes>
          <leafValues>
            2.4118189513683319e-01 -1.4279787242412567e-01</leafValues></_>
        <_>
          <internalNodes>
            0 -1 296 -6.7434767261147499e-03</internalNodes>
          <leafValues>
            -5.7211297750473022e-01 5.2455000579357147e-02</leafValues></_>
        <_>
          <internalNodes>
            0 -1 418 -1.1070726811885834e-01</internalNodes>
          <leafValues>
            4.0057042241096497e-01 -9.2968501150608063e-02</leafValues></_>
        <_>
          <internalNodes>
            0 -1 210 -2.6851871982216835e-02</internalNodes>
          <leafValues>
            2.7887323498725891e-01 -1.4307428896427155e-01</leafValues></_>
        <_>
          <internalNodes>
            0 -1 57 1.1051306501030922e-02</internalNodes>
          <leafValues>
            6.9917589426040649e-02 -7.2176289558410645e-01</leafValues></_>
        <_>
          <internalNodes>
            0 -1 53 2.1081346273422241e-01</internalNodes>
          <leafValues>
            7.4960529804229736e-02 -4.4172453880310059e-01</leafValues></_>
        <_>
          <internalNodes>
            0 -1 126 -6.8000354804098606e-03</internalNodes>
          <leafValues>
            -4.2848750948905945e-01 8.3039030432701111e-02</leafValues></_>
        <_>
          <internalNodes>
            0 -1 284 3.1934779137372971e-02</internalNodes>
          <leafValues>
            4.1612029075622559e-02 -6.9317507743835449e-01</leafValues></_>
        <_>
          <internalNodes>
            0 -1 121 -5.5897556245326996e-02</internalNodes>
          <leafValues>
            -8.8709115982055664e-01 2.8822960332036018e-02</leafValues></_>
        <_>
          <internalNodes>
            0 -1 308 -2.9938545078039169e-02</internalNodes>
          <leafValues>
            3.6026483774185181e-01 -1.0198306292295456e-01</leafValues></_>
        <_>
          <internalNodes>
            0 -1 11 3.7486099172383547e-03</internalNodes>
          <leafValues>
            1.1789813637733459e-01 -3.2417055964469910e-01</leafValues></_>
        <_>
          <internalNodes>
            0 -1 21 2.3870639503002167e-02</internalNodes>
          <leafValues>
            -1.0974596440792084e-01 3.5194277763366699e-01</leafValues></_>
        <_>
          <internalNodes>
            0 -1 36 -2.3056704550981522e-02</internalNodes>
          <leafValues>
            2.2349590063095093e-01 -2.1153242886066437e-01</leafValues></_>
        <_>
          <internalNodes>
            0 -1 114 -5.9265699237585068e-02</internalNodes>
          <leafValues>
            -7.4514752626419067e-01 4.1874475777149200e-02</leafValues></_>
        <_>
          <internalNodes>
            0 -1 493 -7.0990431122481823e-03</internalNodes>
          <leafValues>
            1.3051107525825500e-01 -2.7280658483505249e-01</leafValues></_>
        <_>
          <internalNodes>
            0 -1 560 9.5938025042414665e-03</internalNodes>
          <leafValues>
            -8.4429793059825897e-02 5.2513259649276733e-01</leafValues></_>
        <_>
          <internalNodes>
            0 -1 3 6.9459155201911926e-03</internalNodes>
          <leafValues>
            6.0687441378831863e-02 -6.2454676628112793e-01</leafValues></_>
        <_>
          <internalNodes>
            0 -1 191 1.3637927360832691e-02</internalNodes>
          <leafValues>
            -7.5533717870712280e-02 5.1748716831207275e-01</leafValues></_>
        <_>
          <internalNodes>
            0 -1 187 -1.5517953783273697e-02</internalNodes>
          <leafValues>
            2.7719438076019287e-01 -1.2420640140771866e-01</leafValues></_></weakClassifiers></_>
    <!-- stage 11 -->
    <_>
      <maxWeakCount>40</maxWeakCount>
      <stageThreshold>-1.0471636056900024e+00</stageThreshold>
      <weakClassifiers>
        <_>
          <internalNodes>
            0 -1 41 -6.6620729863643646e-02</internalNodes>
          <leafValues>
            2.2222222387790680e-01 -2.8375732898712158e-01</leafValues></_>
        <_>
          <internalNodes>
            0 -1 508 1.5932621434330940e-02</internalNodes>
          <leafValues>
            -2.9004308581352234e-01 2.0903234183788300e-01</leafValues></_>
        <_>
          <internalNodes>
            0 -1 101 -9.6261929720640182e-03</internalNodes>
          <leafValues>
            1.4581769704818726e-01 -3.1592324376106262e-01</leafValues></_>
        <_>
          <internalNodes>
            0 -1 262 3.7633076310157776e-02</internalNodes>
          <leafValues>
            -9.0199142694473267e-02 4.7363069653511047e-01</leafValues></_>
        <_>
          <internalNodes>
            0 -1 173 1.8009785562753677e-02</internalNodes>
          <leafValues>
            -1.5925255417823792e-01 3.4821483492851257e-01</leafValues></_>
        <_>
          <internalNodes>
            0 -1 356 -1.1697556823492050e-02</internalNodes>
          <leafValues>
            1.6132664680480957e-01 -2.9736423492431641e-01</leafValues></_>
        <_>
          <internalNodes>
            0 -1 369 1.7313660681247711e-01</internalNodes>
          <leafValues>
            -9.1517180204391479e-02 5.5945754051208496e-01</leafValues></_>
        <_>
          <internalNodes>
            0 -1 533 -1.3610748574137688e-02</internalNodes>
          <leafValues>
            3.0582353472709656e-01 -1.5126173198223114e-01</leafValues></_>
        <_>
          <internalNodes>
            0 -1 515 -6.7737765610218048e-02</internalNodes>
          <leafValues>
            -6.0666090250015259e-01 4.5275315642356873e-02</leafValues></_>
        <_>
          <internalNodes>
            0 -1 384 -1.5098867006599903e-02</internalNodes>
          <leafValues>
            2.2182542085647583e-01 -1.7612469196319580e-01</leafValues></_>
        <_>
          <internalNodes>
            0 -1 198 1.2860339879989624e-01</internalNodes>
          <leafValues>
            -6.4559876918792725e-02 9.0107196569442749e-01</leafValues></_>
        <_>
          <internalNodes>
            0 -1 302 -2.3686412721872330e-02</internalNodes>
          <leafValues>
            2.8700539469718933e-01 -1.2817911803722382e-01</leafValues></_>
        <_>
          <internalNodes>
            0 -1 551 5.1241880282759666e-03</internalNodes>
          <leafValues>
            8.8376805186271667e-02 -4.9909827113151550e-01</leafValues></_>
        <_>
          <internalNodes>
            0 -1 3 -6.7488220520317554e-03</internalNodes>
          <leafValues>
            -5.9797239303588867e-01 5.8272302150726318e-02</leafValues></_>
        <_>
          <internalNodes>
            0 -1 350 7.5895823538303375e-02</internalNodes>
          <leafValues>
            5.3846612572669983e-02 -7.0002323389053345e-01</leafValues></_>
        <_>
          <internalNodes>
            0 -1 432 -5.5898457765579224e-02</internalNodes>
          <leafValues>
            -8.1750625371932983e-01 4.4156879186630249e-02</leafValues></_>
        <_>
          <internalNodes>
            0 -1 50 -1.1606687621679157e-04</internalNodes>
          <leafValues>
            1.6383624076843262e-01 -2.2446447610855103e-01</leafValues></_>
        <_>
          <internalNodes>
            0 -1 247 3.4561413526535034e-01</internalNodes>
          <leafValues>
            -7.7495448291301727e-02 4.8360729217529297e-01</leafValues></_>
        <_>
          <internalNodes>
            0 -1 39 1.5140470862388611e-01</internalNodes>
          <leafValues>
            -9.1091200709342957e-02 3.9845407009124756e-01</leafValues></_>
        <_>
          <internalNodes>
            0 -1 144 -3.7306353449821472e-02</internalNodes>
          <leafValues>
            3.3404526114463806e-01 -1.6436061263084412e-01</leafValues></_>
        <_>
          <internalNodes>
            0 -1 556 -5.8308029547333717e-03</internalNodes>
          <leafValues>
            3.3551320433616638e-01 -1.1267622560262680e-01</leafValues></_>
        <_>
          <internalNodes>
            0 -1 473 -9.4393752515316010e-03</internalNodes>
          <leafValues>
            2.7102166414260864e-01 -1.3070641458034515e-01</leafValues></_>
        <_>
          <internalNodes>
            0 -1 271 -3.4172110259532928e-02</internalNodes>
          <leafValues>
            -7.4384462833404541e-01 3.9663691073656082e-02</leafValues></_>
        <_>
          <internalNodes>
            0 -1 5 -1.0458888486027718e-02</internalNodes>
          <leafValues>
            -3.8867497444152832e-01 8.8781692087650299e-02</leafValues></_>
        <_>
          <internalNodes>
            0 -1 176 -3.1762468814849854e-01</internalNodes>
          <leafValues>
            -8.3172035217285156e-01 3.7759386003017426e-02</leafValues></_>
        <_>
          <internalNodes>
            0 -1 507 -2.1161865442991257e-02</internalNodes>
          <leafValues>
            -5.1200240850448608e-01 6.7758426070213318e-02</leafValues></_>
        <_>
          <internalNodes>
            0 -1 263 -2.7358088642358780e-02</internalNodes>
          <leafValues>
            5.8538669347763062e-01 -6.3974037766456604e-02</leafValues></_>
        <_>
          <internalNodes>
            0 -1 301 -1.7888955771923065e-02</internalNodes>
          <leafValues>
            2.0681412518024445e-01 -1.7778816819190979e-01</leafValues></_>
        <_>
          <internalNodes>
            0 -1 303 3.7982206791639328e-02</internalNodes>
          <leafValues>
            -6.4845919609069824e-02 5.7641977071762085e-01</leafValues></_>
        <_>
          <internalNodes>
            0 -1 544 -1.2717847130261362e-04</internalNodes>
          <leafValues>
            1.9406145811080933e-01 -2.1074028313159943e-01</leafValues></_>
        <_>
          <internalNodes>
            0 -1 124 7.0156492292881012e-02</internalNodes>
          <leafValues>
            6.2631867825984955e-02 -5.1777100563049316e-01</leafValues></_>
        <_>
          <internalNodes>
            0 -1 175 -1.0152964293956757e-01</internalNodes>
          <leafValues>
            -7.4779278039932251e-01 4.5726656913757324e-02</leafValues></_>
        <_>
          <internalNodes>
            0 -1 357 -2.8795108664780855e-04</internalNodes>
          <leafValues>
            1.1777877807617188e-01 -2.5788250565528870e-01</leafValues></_>
        <_>
          <internalNodes>
            0 -1 403 -2.4966569617390633e-04</internalNodes>
          <leafValues>
            1.4759923517704010e-01 -2.2346496582031250e-01</leafValues></_>
        <_>
          <internalNodes>
            0 -1 2 -1.4147640205919743e-02</internalNodes>
          <leafValues>
            -6.1277419328689575e-01 5.4438728839159012e-02</leafValues></_>
        <_>
          <internalNodes>
            0 -1 404 6.4824502915143967e-03</internalNodes>
          <leafValues>
            9.2189379036426544e-02 -3.0007579922676086e-01</leafValues></_>
        <_>
          <internalNodes>
            0 -1 346 -5.0527969142422080e-04</internalNodes>
          <leafValues>
            1.6136111319065094e-01 -1.8671990931034088e-01</leafValues></_>
        <_>
          <internalNodes>
            0 -1 208 1.4957671985030174e-02</internalNodes>
          <leafValues>
            -1.1636178195476532e-01 2.8263378143310547e-01</leafValues></_>
        <_>
          <internalNodes>
            0 -1 272 8.9430183172225952e-02</internalNodes>
          <leafValues>
            4.3892983347177505e-02 -7.9131829738616943e-01</leafValues></_>
        <_>
          <internalNodes>
            0 -1 560 -5.7713082060217857e-03</internalNodes>
          <leafValues>
            2.6346808671951294e-01 -1.2718300521373749e-01</leafValues></_></weakClassifiers></_>
    <!-- stage 12 -->
    <_>
      <maxWeakCount>41</maxWeakCount>
      <stageThreshold>-1.0159766674041748e+00</stageThreshold>
      <weakClassifiers>
        <_>
          <internalNodes>
            0 -1 81 -3.9221517741680145e-02</internalNodes>
          <leafValues>
            1.9044911861419678e-01 -2.7965179085731506e-01</leafValues></_>
        <_>
          <internalNodes>
            0 -1 519 1.6790028661489487e-02</internalNodes>
          <leafValues>
            -2.4046030640602112e-01 1.8491485714912415e-01</leafValues></_>
        <_>
          <internalNodes>
            0 -1 339 3.1579528003931046e-02</internalNodes>
          <leafValues>
            -1.4345325529575348e-01 3.0193290114402771e-01</leafValues></_>
        <_>
          <internalNodes>
            0 -1 130 -1.7406858503818512e-02</internalNodes>
          <leafValues>
            -4.4171875715255737e-01 9.4864860177040100e-02</leafValues></_>
        <_>
          <internalNodes>
            0 -1 379 -1.4635616913437843e-02</internalNodes>
          <leafValues>
            1.8337106704711914e-01 -2.3644948005676270e-01</leafValues></_>
        <_>
          <internalNodes>
            0 -1 5 9.7026377916336060e-03</internalNodes>
          <leafValues>
            8.2509055733680725e-02 -4.3856191635131836e-01</leafValues></_>
        <_>
          <internalNodes>
            0 -1 14 -3.7998169660568237e-02</internalNodes>
          <leafValues>
            2.3434218764305115e-01 -1.5561448037624359e-01</leafValues></_>
        <_>
          <internalNodes>
            0 -1 314 -4.4785099453292787e-04</internalNodes>
          <leafValues>
            1.7756091058254242e-01 -2.0729771256446838e-01</leafValues></_>
        <_>
          <internalNodes>
            0 -1 470 -1.4770844951272011e-02</internalNodes>
          <leafValues>
            1.9307594001293182e-01 -1.7464968562126160e-01</leafValues></_>
        <_>
          <internalNodes>
            0 -1 561 -5.3443573415279388e-04</internalNodes>
          <leafValues>
            1.8184177577495575e-01 -2.1700660884380341e-01</leafValues></_>
        <_>
          <internalNodes>
            0 -1 482 -7.6619140803813934e-02</internalNodes>
          <leafValues>
            5.8753013610839844e-01 -6.7625693976879120e-02</leafValues></_>
        <_>
          <internalNodes>
            0 -1 458 1.6850648447871208e-02</internalNodes>
          <leafValues>
            -1.3508369028568268e-01 2.5394353270530701e-01</leafValues></_>
        <_>
          <internalNodes>
            0 -1 521 -4.7343694604933262e-03</internalNodes>
          <leafValues>
            -4.4282755255699158e-01 7.8043706715106964e-02</leafValues></_>
        <_>
          <internalNodes>
            0 -1 213 8.9253842830657959e-02</internalNodes>
          <leafValues>
            -9.8253861069679260e-02 3.9582568407058716e-01</leafValues></_>
        <_>
          <internalNodes>
            0 -1 60 -7.8727658838033676e-03</internalNodes>
          <leafValues>
            1.4476387202739716e-01 -3.1592044234275818e-01</leafValues></_>
        <_>
          <internalNodes>
            0 -1 511 -3.7085097283124924e-03</internalNodes>
          <leafValues>
            -4.3294417858123779e-01 8.6949408054351807e-02</leafValues></_>
        <_>
          <internalNodes>
            0 -1 192 3.9078772068023682e-02</internalNodes>
          <leafValues>
            -7.3505409061908722e-02 4.8447030782699585e-01</leafValues></_>
        <_>
          <internalNodes>
            0 -1 500 -5.9228138998150826e-03</internalNodes>
          <leafValues>
            -4.7348907589912415e-01 7.4682220816612244e-02</leafValues></_>
        <_>
          <internalNodes>
            0 -1 185 -2.8688889741897583e-01</internalNodes>
          <leafValues>
            -8.8506484031677246e-01 3.4512743353843689e-02</leafValues></_>
        <_>
          <internalNodes>
            0 -1 336 8.7304413318634033e-02</internalNodes>
          <leafValues>
            4.5230541378259659e-02 -6.0274881124496460e-01</leafValues></_>
        <_>
          <internalNodes>
            0 -1 438 -8.2958623766899109e-02</internalNodes>
          <leafValues>
            -6.1124032735824585e-01 5.0356581807136536e-02</leafValues></_>
        <_>
          <internalNodes>
            0 -1 354 -7.2008401155471802e-02</internalNodes>
          <leafValues>
            5.7666331529617310e-01 -6.1084121465682983e-02</leafValues></_>
        <_>
          <internalNodes>
            0 -1 227 -1.0333135724067688e-02</internalNodes>
          <leafValues>
            1.9688661396503448e-01 -1.9032457470893860e-01</leafValues></_>
        <_>
          <internalNodes>
            0 -1 25 -4.3998292088508606e-01</internalNodes>
          <leafValues>
            -6.8529605865478516e-01 4.7675412148237228e-02</leafValues></_>
        <_>
          <internalNodes>
            0 -1 528 6.9309130311012268e-02</internalNodes>
          <leafValues>
            -6.3987851142883301e-02 5.5893254280090332e-01</leafValues></_>
        <_>
          <internalNodes>
            0 -1 517 -3.8392194546759129e-03</internalNodes>
          <leafValues>
            -3.9212033152580261e-01 7.9884432256221771e-02</leafValues></_>
        <_>
          <internalNodes>
            0 -1 346 -2.8259733691811562e-02</internalNodes>
          <leafValues>
            -7.1456444263458252e-01 4.1421443223953247e-02</leafValues></_>
        <_>
          <internalNodes>
            0 -1 165 -3.2107431441545486e-02</internalNodes>
          <leafValues>
            5.5199372768402100e-01 -6.1904542148113251e-02</leafValues></_>
        <_>
          <internalNodes>
            0 -1 74 -1.2193663418292999e-01</internalNodes>
          <leafValues>
            -5.3332781791687012e-01 6.9317750632762909e-02</leafValues></_>
        <_>
          <internalNodes>
            0 -1 489 -6.9336667656898499e-03</internalNodes>
          <leafValues>
            2.8532460331916809e-01 -1.1072449386119843e-01</leafValues></_>
        <_>
          <internalNodes>
            0 -1 75 -2.5382059812545776e-01</internalNodes>
          <leafValues>
            -8.2906109094619751e-01 3.5339958965778351e-02</leafValues></_>
        <_>
          <internalNodes>
            0 -1 8 -2.4364342913031578e-02</internalNodes>
          <leafValues>
            -3.5299965739250183e-01 6.9109112024307251e-02</leafValues></_>
        <_>
          <internalNodes>
            0 -1 400 -9.6459491178393364e-03</internalNodes>
          <leafValues>
            3.4943500161170959e-01 -9.7224421799182892e-02</leafValues></_>
        <_>
          <internalNodes>
            0 -1 49 -1.3859825208783150e-02</internalNodes>
          <leafValues>
            1.5527339279651642e-01 -2.4964004755020142e-01</leafValues></_>
        <_>
          <internalNodes>
            0 -1 22 -8.2991048693656921e-02</internalNodes>
          <leafValues>
            -5.6773686408996582e-01 5.3338907659053802e-02</leafValues></_>
        <_>
          <internalNodes>
            0 -1 340 -1.3646235689520836e-02</internalNodes>
          <leafValues>
            2.9352676868438721e-01 -1.1303015053272247e-01</leafValues></_>
        <_>
          <internalNodes>
            0 -1 277 -1.0119228623807430e-02</internalNodes>
          <leafValues>
            2.2080139815807343e-01 -1.8004132807254791e-01</leafValues></_>
        <_>
          <internalNodes>
            0 -1 228 1.3221603631973267e-01</internalNodes>
          <leafValues>
            5.2230391651391983e-02 -6.3137650489807129e-01</leafValues></_>
        <_>
          <internalNodes>
            0 -1 439 -2.9685558751225471e-02</internalNodes>
          <leafValues>
            -6.5638518333435059e-01 4.1170962154865265e-02</leafValues></_>
        <_>
          <internalNodes>
            0 -1 440 1.7335087060928345e-02</internalNodes>
          <leafValues>
            7.6929502189159393e-02 -3.4783956408500671e-01</leafValues></_>
        <_>
          <internalNodes>
            0 -1 10 3.1741589307785034e-02</internalNodes>
          <leafValues>
            5.1028285175561905e-02 -5.6488436460494995e-01</leafValues></_></weakClassifiers></_>
    <!-- stage 13 -->
    <_>
      <maxWeakCount>47</maxWeakCount>
      <stageThreshold>-1.0608637332916260e+00</stageThreshold>
      <weakClassifiers>
        <_>
          <internalNodes>
            0 -1 491 -8.2246549427509308e-03</internalNodes>
          <leafValues>
            2.4804548919200897e-01 -2.1321794390678406e-01</leafValues></_>
        <_>
          <internalNodes>
            0 -1 320 -3.9175600977614522e-04</internalNodes>
          <leafValues>
            1.6168037056922913e-01 -2.7446073293685913e-01</leafValues></_>
        <_>
          <internalNodes>
            0 -1 77 -4.2308103293180466e-03</internalNodes>
          <leafValues>
            3.1088694930076599e-01 -1.4116102457046509e-01</leafValues></_>
        <_>
          <internalNodes>
            0 -1 267 5.5476438254117966e-02</internalNodes>
          <leafValues>
            -1.2928840517997742e-01 3.0800157785415649e-01</leafValues></_>
        <_>
          <internalNodes>
            0 -1 413 -4.0973134338855743e-02</internalNodes>
          <leafValues>
            3.1404381990432739e-01 -9.7665786743164063e-02</leafValues></_>
        <_>
          <internalNodes>
            0 -1 299 1.4823631499893963e-04</internalNodes>
          <leafValues>
            -3.0277201533317566e-01 7.7924370765686035e-02</leafValues></_>
        <_>
          <internalNodes>
            0 -1 504 9.6692582592368126e-03</internalNodes>
          <leafValues>
            1.1900475621223450e-01 -4.2424264550209045e-01</leafValues></_>
        <_>
          <internalNodes>
            0 -1 323 2.9520416865125299e-04</internalNodes>
          <leafValues>
            -2.3062995076179504e-01 1.4521619677543640e-01</leafValues></_>
        <_>
          <internalNodes>
            0 -1 421 -6.8529834970831871e-03</internalNodes>
          <leafValues>
            1.7787382006645203e-01 -1.8387703597545624e-01</leafValues></_>
        <_>
          <internalNodes>
            0 -1 410 -1.9148546457290649e-01</internalNodes>
          <leafValues>
            -9.1306877136230469e-01 3.4644793719053268e-02</leafValues></_>
        <_>
          <internalNodes>
            0 -1 158 8.6030684411525726e-02</internalNodes>
          <leafValues>
            3.2546866685152054e-02 -7.3709070682525635e-01</leafValues></_>
        <_>
          <internalNodes>
            0 -1 333 -1.3327136635780334e-02</internalNodes>
          <leafValues>
            4.5270639657974243e-01 -9.0191923081874847e-02</leafValues></_>
        <_>
          <internalNodes>
            0 -1 518 -1.0393799282610416e-02</internalNodes>
          <leafValues>
            -3.3341255784034729e-01 1.2160862237215042e-01</leafValues></_>
        <_>
          <internalNodes>
            0 -1 550 8.6620468646287918e-03</internalNodes>
          <leafValues>
            9.1359749436378479e-02 -3.3570554852485657e-01</leafValues></_>
        <_>
          <internalNodes>
            0 -1 501 -5.1011070609092712e-03</internalNodes>
          <leafValues>
            -4.0638646483421326e-01 7.2523429989814758e-02</leafValues></_>
        <_>
          <internalNodes>
            0 -1 189 6.3265766948461533e-03</internalNodes>
          <leafValues>
            8.3162121474742889e-02 -3.8657432794570923e-01</leafValues></_>
        <_>
          <internalNodes>
            0 -1 313 -2.2663000971078873e-02</internalNodes>
          <leafValues>
            2.3697167634963989e-01 -1.3415102660655975e-01</leafValues></_>
        <_>
          <internalNodes>
            0 -1 381 -1.2789204716682434e-01</internalNodes>
          <leafValues>
            -7.8515470027923584e-01 3.6011770367622375e-02</leafValues></_>
        <_>
          <internalNodes>
            0 -1 225 -3.5255840048193932e-03</internalNodes>
          <leafValues>
            1.6333410143852234e-01 -1.8337854743003845e-01</leafValues></_>
        <_>
          <internalNodes>
            0 -1 134 2.8190830349922180e-01</internalNodes>
          <leafValues>
            -4.3247479945421219e-02 7.1370631456375122e-01</leafValues></_>
        <_>
          <internalNodes>
            0 -1 143 -1.3453499414026737e-02</internalNodes>
          <leafValues>
            1.9138781726360321e-01 -1.5358483791351318e-01</leafValues></_>
        <_>
          <internalNodes>
            0 -1 290 -7.5249588117003441e-03</internalNodes>
          <leafValues>
            1.1571840941905975e-01 -3.2091346383094788e-01</leafValues></_>
        <_>
          <internalNodes>
            0 -1 371 2.6378326117992401e-02</internalNodes>
          <leafValues>
            -1.0636401176452637e-01 3.9281335473060608e-01</leafValues></_>
        <_>
          <internalNodes>
            0 -1 387 1.9775262102484703e-02</internalNodes>
          <leafValues>
            -1.4077565073966980e-01 1.9981856644153595e-01</leafValues></_>
        <_>
          <internalNodes>
            0 -1 80 -3.4868139773607254e-02</internalNodes>
          <leafValues>
            1.9123123586177826e-01 -1.6000156104564667e-01</leafValues></_>
        <_>
          <internalNodes>
            0 -1 502 1.0540125891566277e-02</internalNodes>
          <leafValues>
            5.6027863174676895e-02 -5.3623431921005249e-01</leafValues></_>
        <_>
          <internalNodes>
            0 -1 372 6.3233710825443268e-02</internalNodes>
          <leafValues>
            3.5862684249877930e-02 -6.7498964071273804e-01</leafValues></_>
        <_>
          <internalNodes>
            0 -1 226 -4.3900415301322937e-02</internalNodes>
          <leafValues>
            -6.1494350433349609e-01 3.7462823092937469e-02</leafValues></_>
        <_>
          <internalNodes>
            0 -1 58 -1.7880233004689217e-02</internalNodes>
          <leafValues>
            2.5721022486686707e-01 -1.1767406761646271e-01</leafValues></_>
        <_>
          <internalNodes>
            0 -1 411 -1.3964832760393620e-04</internalNodes>
          <leafValues>
            1.3763615489006042e-01 -2.1275955438613892e-01</leafValues></_>
        <_>
          <internalNodes>
            0 -1 205 1.8282942473888397e-01</internalNodes>
          <leafValues>
            -5.0113238394260406e-02 6.5097326040267944e-01</leafValues></_>
        <_>
          <internalNodes>
            0 -1 85 -1.8873167037963867e-01</internalNodes>
          <leafValues>
            -8.4597474336624146e-01 4.1314452886581421e-02</leafValues></_>
        <_>
          <internalNodes>
            0 -1 142 -1.1612518690526485e-02</internalNodes>
          <leafValues>
            2.5123155117034912e-01 -1.1829288303852081e-01</leafValues></_>
        <_>
          <internalNodes>
            0 -1 154 3.9755493402481079e-02</internalNodes>
          <leafValues>
            -5.0772469490766525e-02 5.4419213533401489e-01</leafValues></_>
        <_>
          <internalNodes>
            0 -1 535 -3.9448156952857971e-02</internalNodes>
          <leafValues>
            2.8082245588302612e-01 -9.8933205008506775e-02</leafValues></_>
        <_>
          <internalNodes>
            0 -1 563 -1.2966665963176638e-04</internalNodes>
          <leafValues>
            1.4250995218753815e-01 -2.0815636217594147e-01</leafValues></_>
        <_>
          <internalNodes>
            0 -1 214 8.0454379320144653e-02</internalNodes>
          <leafValues>
            -1.2863452732563019e-01 2.4844989180564880e-01</leafValues></_>
        <_>
          <internalNodes>
            0 -1 254 -3.4342020750045776e-02</internalNodes>
          <leafValues>
            -4.3825942277908325e-01 8.1350058317184448e-02</leafValues></_>
        <_>
          <internalNodes>
            0 -1 252 3.0370946973562241e-02</internalNodes>
          <leafValues>
            2.7670901268720627e-02 -7.2110545635223389e-01</leafValues></_>
        <_>
          <internalNodes>
            0 -1 234 -4.5789539813995361e-01</internalNodes>
          <leafValues>
            -8.8461369276046753e-01 2.3426221683621407e-02</leafValues></_>
        <_>
          <internalNodes>
            0 -1 4 -1.2338612228631973e-02</internalNodes>
          <leafValues>
            -4.8488971590995789e-01 4.8671867698431015e-02</leafValues></_>
        <_>
          <internalNodes>
            0 -1 4 9.0005286037921906e-03</internalNodes>
          <leafValues>
            7.2746068239212036e-02 -3.9480799436569214e-01</leafValues></_>
        <_>
          <internalNodes>
            0 -1 444 -1.0852016508579254e-01</internalNodes>
          <leafValues>
            -7.0836788415908813e-01 3.8026824593544006e-02</leafValues></_>
        <_>
          <internalNodes>
            0 -1 119 8.8467486202716827e-02</internalNodes>
          <leafValues>
            2.6963517069816589e-02 -7.9410219192504883e-01</leafValues></_>
        <_>
          <internalNodes>
            0 -1 249 -4.4644363224506378e-03</internalNodes>
          <leafValues>
            4.0805897116661072e-01 -6.8251743912696838e-02</leafValues></_>
        <_>
          <internalNodes>
            0 -1 437 -3.1411804258823395e-02</internalNodes>
          <leafValues>
            -6.2758541107177734e-01 4.2801879346370697e-02</leafValues></_>
        <_>
          <internalNodes>
            0 -1 560 -4.8196562565863132e-03</internalNodes>
          <leafValues>
            2.1769995987415314e-01 -1.2574101984500885e-01</leafValues></_></weakClassifiers></_>
    <!-- stage 14 -->
    <_>
      <maxWeakCount>53</maxWeakCount>
      <stageThreshold>-1.0486098527908325e+00</stageThreshold>
      <weakClassifiers>
        <_>
          <internalNodes>
            0 -1 151 -9.8667718470096588e-02</internalNodes>
          <leafValues>
            2.0862397551536560e-01 -2.2797456383705139e-01</leafValues></_>
        <_>
          <internalNodes>
            0 -1 539 9.0582156553864479e-03</internalNodes>
          <leafValues>
            -3.2340991497039795e-01 1.4439174532890320e-01</leafValues></_>
        <_>
          <internalNodes>
            0 -1 116 -3.5633880179375410e-04</internalNodes>
          <leafValues>
            1.6942489147186279e-01 -2.4443911015987396e-01</leafValues></_>
        <_>
          <internalNodes>
            0 -1 69 -3.6691412329673767e-02</internalNodes>
          <leafValues>
            2.6901105046272278e-01 -1.3438458740711212e-01</leafValues></_>
        <_>
          <internalNodes>
            0 -1 414 4.5751713216304779e-02</internalNodes>
          <leafValues>
            -1.1240760982036591e-01 3.1474739313125610e-01</leafValues></_>
        <_>
          <internalNodes>
            0 -1 562 -5.6813634000718594e-04</internalNodes>
          <leafValues>
            9.4689726829528809e-02 -3.3714297413825989e-01</leafValues></_>
        <_>
          <internalNodes>
            0 -1 367 -2.7170437574386597e-01</internalNodes>
          <leafValues>
            -6.2487757205963135e-01 8.3776436746120453e-02</leafValues></_>
        <_>
          <internalNodes>
            0 -1 548 -4.4163828715682030e-03</internalNodes>
          <leafValues>
            -3.8601648807525635e-01 7.4843600392341614e-02</leafValues></_>
        <_>
          <internalNodes>
            0 -1 470 -2.8764586895704269e-02</internalNodes>
          <leafValues>
            2.9783686995506287e-01 -1.2144046276807785e-01</leafValues></_>
        <_>
          <internalNodes>
            0 -1 556 -5.7971486821770668e-03</internalNodes>
          <leafValues>
            3.0917719006538391e-01 -9.0017393231391907e-02</leafValues></_>
        <_>
          <internalNodes>
            0 -1 468 5.3512871265411377e-02</internalNodes>
          <leafValues>
            -9.2851422727108002e-02 5.3935223817825317e-01</leafValues></_>
        <_>
          <internalNodes>
            0 -1 264 -2.1663555875420570e-02</internalNodes>
          <leafValues>
            2.8692266345024109e-01 -9.9985085427761078e-02</leafValues></_>
        <_>
          <internalNodes>
            0 -1 0 -4.2860470712184906e-03</internalNodes>
          <leafValues>
            -3.8934034109115601e-01 6.8265318870544434e-02</leafValues></_>
        <_>
          <internalNodes>
            0 -1 33 2.2345989942550659e-02</internalNodes>
          <leafValues>
            6.5315082669258118e-02 -4.9651435017585754e-01</leafValues></_>
        <_>
          <internalNodes>
            0 -1 138 -4.7213456127792597e-04</internalNodes>
          <leafValues>
            1.2211859226226807e-01 -2.4252928793430328e-01</leafValues></_>
        <_>
          <internalNodes>
            0 -1 17 2.8987448662519455e-02</internalNodes>
          <leafValues>
            3.8298118859529495e-02 -5.6635254621505737e-01</leafValues></_>
        <_>
          <internalNodes>
            0 -1 230 -1.5612342953681946e-01</internalNodes>
          <leafValues>
            -3.5105824470520020e-01 7.9325847327709198e-02</leafValues></_>
        <_>
          <internalNodes>
            0 -1 379 -1.0058701038360596e-02</internalNodes>
          <leafValues>
            1.2623290717601776e-01 -2.2305753827095032e-01</leafValues></_>
        <_>
          <internalNodes>
            0 -1 127 -5.1111537031829357e-03</internalNodes>
          <leafValues>
            -3.8838493824005127e-01 7.5029790401458740e-02</leafValues></_>
        <_>
          <internalNodes>
            0 -1 263 -1.5511613339185715e-02</internalNodes>
          <leafValues>
            3.8871747255325317e-01 -7.4016802012920380e-02</leafValues></_>
        <_>
          <internalNodes>
            0 -1 406 1.0446032509207726e-02</internalNodes>
          <leafValues>
            -1.8694461882114410e-01 1.8741853535175323e-01</leafValues></_>
        <_>
          <internalNodes>
            0 -1 140 -4.8030775040388107e-02</internalNodes>
          <leafValues>
            4.1057929396629333e-01 -7.9221330583095551e-02</leafValues></_>
        <_>
          <internalNodes>
            0 -1 334 -3.3766336739063263e-02</internalNodes>
          <leafValues>
            -6.5464645624160767e-01 5.4833471775054932e-02</leafValues></_>
        <_>
          <internalNodes>
            0 -1 392 -5.6428197771310806e-02</internalNodes>
          <leafValues>
            -6.4202362298965454e-01 2.8210228309035301e-02</leafValues></_>
        <_>
          <internalNodes>
            0 -1 494 -1.1794927559094504e-04</internalNodes>
          <leafValues>
            1.2373977154493332e-01 -2.2260269522666931e-01</leafValues></_>
        <_>
          <internalNodes>
            0 -1 236 -2.5875883176922798e-02</internalNodes>
          <leafValues>
            3.6468154191970825e-01 -7.4840135872364044e-02</leafValues></_>
        <_>
          <internalNodes>
            0 -1 90 -1.3720298185944557e-02</internalNodes>
          <leafValues>
            1.7693132162094116e-01 -1.6231293976306915e-01</leafValues></_>
        <_>
          <internalNodes>
            0 -1 434 4.6624145470559597e-03</internalNodes>
          <leafValues>
            -1.1061557382345200e-01 2.3671936988830566e-01</leafValues></_>
        <_>
          <internalNodes>
            0 -1 487 1.7821274697780609e-02</internalNodes>
          <leafValues>
            -1.7065249383449554e-01 1.7260399460792542e-01</leafValues></_>
        <_>
          <internalNodes>
            0 -1 445 1.6929518431425095e-02</internalNodes>
          <leafValues>
            5.9695634990930557e-02 -4.4018185138702393e-01</leafValues></_>
        <_>
          <internalNodes>
            0 -1 57 5.4338537156581879e-03</internalNodes>
          <leafValues>
            5.8571126312017441e-02 -4.3099716305732727e-01</leafValues></_>
        <_>
          <internalNodes>
            0 -1 73 1.7995486035943031e-02</internalNodes>
          <leafValues>
            -1.3008257746696472e-01 2.4811364710330963e-01</leafValues></_>
        <_>
          <internalNodes>
            0 -1 278 2.9133323580026627e-02</internalNodes>
          <leafValues>
            -6.4212940633296967e-02 4.5060950517654419e-01</leafValues></_>
        <_>
          <internalNodes>
            0 -1 24 2.7153098583221436e-01</internalNodes>
          <leafValues>
            5.3470220416784286e-02 -6.5404587984085083e-01</leafValues></_>
        <_>
          <internalNodes>
            0 -1 111 7.9542687162756920e-03</internalNodes>
          <leafValues>
            5.2028622478246689e-02 -4.3327653408050537e-01</leafValues></_>
        <_>
          <internalNodes>
            0 -1 447 -2.6597805321216583e-02</internalNodes>
          <leafValues>
            -8.1979626417160034e-01 2.5152960792183876e-02</leafValues></_>
        <_>
          <internalNodes>
            0 -1 115 -5.5537115782499313e-02</internalNodes>
          <leafValues>
            -7.1339339017868042e-01 2.6596756651997566e-02</leafValues></_>
        <_>
          <internalNodes>
            0 -1 231 2.1797563135623932e-01</internalNodes>
          <leafValues>
            2.9884144663810730e-02 -6.2534558773040771e-01</leafValues></_>
        <_>
          <internalNodes>
            0 -1 355 2.0968423783779144e-01</internalNodes>
          <leafValues>
            -3.9174675941467285e-02 7.2500354051589966e-01</leafValues></_>
        <_>
          <internalNodes>
            0 -1 286 4.4001536443829536e-03</internalNodes>
          <leafValues>
            -1.7587961256504059e-01 1.4017342031002045e-01</leafValues></_>
        <_>
          <internalNodes>
            0 -1 311 3.6170870065689087e-02</internalNodes>
          <leafValues>
            -1.1859090626239777e-01 2.0267087221145630e-01</leafValues></_>
        <_>
          <internalNodes>
            0 -1 409 3.8628820329904556e-02</internalNodes>
          <leafValues>
            -1.5227296948432922e-01 1.9774091243743896e-01</leafValues></_>
        <_>
          <internalNodes>
            0 -1 23 2.4123680591583252e-01</internalNodes>
          <leafValues>
            3.4615904092788696e-02 -6.8047571182250977e-01</leafValues></_>
        <_>
          <internalNodes>
            0 -1 358 -1.1150862090289593e-02</internalNodes>
          <leafValues>
            -7.4864387512207031e-01 3.1343095004558563e-02</leafValues></_>
        <_>
          <internalNodes>
            0 -1 253 -4.0795944631099701e-02</internalNodes>
          <leafValues>
            -6.6430211067199707e-01 2.8175285086035728e-02</leafValues></_>
        <_>
          <internalNodes>
            0 -1 321 2.5452613830566406e-02</internalNodes>
          <leafValues>
            5.0267130136489868e-02 -3.8968890905380249e-01</leafValues></_>
        <_>
          <internalNodes>
            0 -1 423 2.9036426544189453e-01</internalNodes>
          <leafValues>
            2.9015989974141121e-02 -7.2322219610214233e-01</leafValues></_>
        <_>
          <internalNodes>
            0 -1 353 1.0766895115375519e-01</internalNodes>
          <leafValues>
            -6.4706690609455109e-02 4.7198274731636047e-01</leafValues></_>
        <_>
          <internalNodes>
            0 -1 182 -1.4953657984733582e-01</internalNodes>
          <leafValues>
            2.9285377264022827e-01 -9.2516429722309113e-02</leafValues></_>
        <_>
          <internalNodes>
            0 -1 203 2.4252023547887802e-02</internalNodes>
          <leafValues>
            -1.2973518669605255e-01 2.7014902234077454e-01</leafValues></_>
        <_>
          <internalNodes>
            0 -1 238 1.4369649812579155e-02</internalNodes>
          <leafValues>
            -4.6560328453779221e-02 5.2532428503036499e-01</leafValues></_>
        <_>
          <internalNodes>
            0 -1 480 2.5909312535077333e-04</internalNodes>
          <leafValues>
            -1.7495839297771454e-01 1.4241947233676910e-01</leafValues></_>
        <_>
          <internalNodes>
            0 -1 259 -5.9217922389507294e-02</internalNodes>
          <leafValues>
            2.1519170701503754e-01 -1.3035045564174652e-01</leafValues></_></weakClassifiers></_>
    <!-- stage 15 -->
    <_>
      <maxWeakCount>53</maxWeakCount>
      <stageThreshold>-9.9572497606277466e-01</stageThreshold>
      <weakClassifiers>
        <_>
          <internalNodes>
            0 -1 61 2.2059602662920952e-02</internalNodes>
          <leafValues>
            -1.8281249701976776e-01 2.2317597270011902e-01</leafValues></_>
        <_>
          <internalNodes>
            0 -1 524 3.7402231246232986e-03</internalNodes>
          <leafValues>
            1.0018107295036316e-01 -3.7023532390594482e-01</leafValues></_>
        <_>
          <internalNodes>
            0 -1 530 1.5893496572971344e-02</internalNodes>
          <leafValues>
            -1.9569183886051178e-01 1.9873327016830444e-01</leafValues></_>
        <_>
          <internalNodes>
            0 -1 149 -2.3723999038338661e-02</internalNodes>
          <leafValues>
            1.4721040427684784e-01 -2.2524225711822510e-01</leafValues></_>
        <_>
          <internalNodes>
            0 -1 161 -2.2610424086451530e-02</internalNodes>
          <leafValues>
            2.0285573601722717e-01 -1.6362954676151276e-01</leafValues></_>
        <_>
          <internalNodes>
            0 -1 44 -1.3973290100693703e-02</internalNodes>
          <leafValues>
            -4.0839654207229614e-01 8.2492157816886902e-02</leafValues></_>
        <_>
          <internalNodes>
            0 -1 124 -3.9492971263825893e-03</internalNodes>
          <leafValues>
            -3.3320134878158569e-01 1.0301204770803452e-01</leafValues></_>
        <_>
          <internalNodes>
            0 -1 246 -2.6475040242075920e-02</internalNodes>
          <leafValues>
            -3.7602227926254272e-01 7.3323905467987061e-02</leafValues></_>
        <_>
          <internalNodes>
            0 -1 1 -5.0405468791723251e-03</internalNodes>
          <leafValues>
            -4.2141354084014893e-01 7.4852190911769867e-02</leafValues></_>
        <_>
          <internalNodes>
            0 -1 512 -9.5575749874114990e-03</internalNodes>
          <leafValues>
            -4.1174417734146118e-01 6.3723526895046234e-02</leafValues></_>
        <_>
          <internalNodes>
            0 -1 329 4.2403191328048706e-03</internalNodes>
          <leafValues>
            9.9276654422283173e-02 -2.4841713905334473e-01</leafValues></_>
        <_>
          <internalNodes>
            0 -1 46 -2.5476710870862007e-02</internalNodes>
          <leafValues>
            2.7955526113510132e-01 -1.1611407250165939e-01</leafValues></_>
        <_>
          <internalNodes>
            0 -1 54 -1.7039445042610168e-01</internalNodes>
          <leafValues>
            -4.8767688870429993e-01 6.1672013252973557e-02</leafValues></_>
        <_>
          <internalNodes>
            0 -1 492 -2.5922358036041260e-02</internalNodes>
          <leafValues>
            2.4082261323928833e-01 -1.2324621528387070e-01</leafValues></_>
        <_>
          <internalNodes>
            0 -1 9 1.3328130356967449e-02</internalNodes>
          <leafValues>
            6.3503496348857880e-02 -3.7471434473991394e-01</leafValues></_>
        <_>
          <internalNodes>
            0 -1 245 4.5199487358331680e-02</internalNodes>
          <leafValues>
            7.2415545582771301e-02 -4.2438545823097229e-01</leafValues></_>
        <_>
          <internalNodes>
            0 -1 62 3.0364096164703369e-02</internalNodes>
          <leafValues>
            -7.4836380779743195e-02 3.6378458142280579e-01</leafValues></_>
        <_>
          <internalNodes>
            0 -1 327 1.1925230920314789e-01</internalNodes>
          <leafValues>
            2.5451892986893654e-02 -8.6974143981933594e-01</leafValues></_>
        <_>
          <internalNodes>
            0 -1 97 2.4800803512334824e-02</internalNodes>
          <leafValues>
            -1.2434297800064087e-01 1.9382637739181519e-01</leafValues></_>
        <_>
          <internalNodes>
            0 -1 290 -3.1345665454864502e-02</internalNodes>
          <leafValues>
            1.1161123961210251e-01 -2.7207377552986145e-01</leafValues></_>
        <_>
          <internalNodes>
            0 -1 39 -1.3800072669982910e-01</internalNodes>
          <leafValues>
            3.7234112620353699e-01 -1.0603687167167664e-01</leafValues></_>
        <_>
          <internalNodes>
            0 -1 520 -4.1936268098652363e-03</internalNodes>
          <leafValues>
            -3.1969973444938660e-01 8.3030410110950470e-02</leafValues></_>
        <_>
          <internalNodes>
            0 -1 430 2.9229119420051575e-02</internalNodes>
          <leafValues>
            -1.1394289880990982e-01 2.2598531842231750e-01</leafValues></_>
        <_>
          <internalNodes>
            0 -1 279 -1.0946417599916458e-01</internalNodes>
          <leafValues>
            2.4856631457805634e-01 -1.3572901487350464e-01</leafValues></_>
        <_>
          <internalNodes>
            0 -1 152 -3.5373592376708984e-01</internalNodes>
          <leafValues>
            -6.5798413753509521e-01 2.9079016298055649e-02</leafValues></_>
        <_>
          <internalNodes>
            0 -1 488 4.9028301145881414e-04</internalNodes>
          <leafValues>
            -1.5723338723182678e-01 1.5419155359268188e-01</leafValues></_>
        <_>
          <internalNodes>
            0 -1 197 8.3399396389722824e-03</internalNodes>
          <leafValues>
            7.5633861124515533e-02 -3.5922971367835999e-01</leafValues></_>
        <_>
          <internalNodes>
            0 -1 131 -2.2324483841657639e-02</internalNodes>
          <leafValues>
            1.9141468405723572e-01 -1.3655342161655426e-01</leafValues></_>
        <_>
          <internalNodes>
            0 -1 139 2.7512438595294952e-02</internalNodes>
          <leafValues>
            -6.1547223478555679e-02 4.9707764387130737e-01</leafValues></_>
        <_>
          <internalNodes>
            0 -1 449 1.9578829407691956e-02</internalNodes>
          <leafValues>
            -9.7325615584850311e-02 2.7711191773414612e-01</leafValues></_>
        <_>
          <internalNodes>
            0 -1 459 3.7340663373470306e-02</internalNodes>
          <leafValues>
            -3.9546750485897064e-02 6.2544649839401245e-01</leafValues></_>
        <_>
          <internalNodes>
            0 -1 331 -1.2833036482334137e-02</internalNodes>
          <leafValues>
            -8.3038687705993652e-01 4.0001038461923599e-02</leafValues></_>
        <_>
          <internalNodes>
            0 -1 474 -2.6474031619727612e-03</internalNodes>
          <leafValues>
            -2.6327747106552124e-01 9.1602101922035217e-02</leafValues></_>
        <_>
          <internalNodes>
            0 -1 445 8.6405929177999496e-03</internalNodes>
          <leafValues>
            8.7492078542709351e-02 -3.0548399686813354e-01</leafValues></_>
        <_>
          <internalNodes>
            0 -1 211 1.0463756322860718e-01</internalNodes>
          <leafValues>
            2.0923689007759094e-02 -9.5196455717086792e-01</leafValues></_>
        <_>
          <internalNodes>
            0 -1 536 5.2819006145000458e-02</internalNodes>
          <leafValues>
            -4.5664105564355850e-02 6.7145478725433350e-01</leafValues></_>
        <_>
          <internalNodes>
            0 -1 242 8.9662492275238037e-02</internalNodes>
          <leafValues>
            5.4723225533962250e-02 -5.1408112049102783e-01</leafValues></_>
        <_>
          <internalNodes>
            0 -1 248 5.5839590728282928e-02</internalNodes>
          <leafValues>
            -4.1212383657693863e-02 6.5361070632934570e-01</leafValues></_>
        <_>
          <internalNodes>
            0 -1 209 2.9601508285850286e-03</internalNodes>
          <leafValues>
            1.1615937203168869e-01 -2.4743974208831787e-01</leafValues></_>
        <_>
          <internalNodes>
            0 -1 349 -3.1433150172233582e-02</internalNodes>
          <leafValues>
            -5.1661801338195801e-01 4.0248617529869080e-02</leafValues></_>
        <_>
          <internalNodes>
            0 -1 251 4.6839314745739102e-04</internalNodes>
          <leafValues>
            -1.4918464422225952e-01 1.4592400193214417e-01</leafValues></_>
        <_>
          <internalNodes>
            0 -1 285 7.4348859488964081e-02</internalNodes>
          <leafValues>
            2.7703136205673218e-02 -7.8022134304046631e-01</leafValues></_>
        <_>
          <internalNodes>
            0 -1 450 -2.6854049414396286e-02</internalNodes>
          <leafValues>
            3.5942921042442322e-01 -6.8681776523590088e-02</leafValues></_>
        <_>
          <internalNodes>
            0 -1 451 1.4741426333785057e-02</internalNodes>
          <leafValues>
            -1.4268893003463745e-01 1.9934843480587006e-01</leafValues></_>
        <_>
          <internalNodes>
            0 -1 251 -4.9682417884469032e-03</internalNodes>
          <leafValues>
            2.8629809617996216e-01 -7.8871428966522217e-02</leafValues></_>
        <_>
          <internalNodes>
            0 -1 199 3.8278251886367798e-02</internalNodes>
          <leafValues>
            -1.1556354165077209e-01 1.8745549023151398e-01</leafValues></_>
        <_>
          <internalNodes>
            0 -1 354 -4.9750819802284241e-02</internalNodes>
          <leafValues>
            4.1967943310737610e-01 -5.9471838176250458e-02</leafValues></_>
        <_>
          <internalNodes>
            0 -1 100 -3.9277016185224056e-04</internalNodes>
          <leafValues>
            9.3446753919124603e-02 -2.5038394331932068e-01</leafValues></_>
        <_>
          <internalNodes>
            0 -1 499 -1.3770310208201408e-02</internalNodes>
          <leafValues>
            -4.7872346639633179e-01 4.4081393629312515e-02</leafValues></_>
        <_>
          <internalNodes>
            0 -1 482 1.8964212387800217e-02</internalNodes>
          <leafValues>
            -9.6825443208217621e-02 2.3682366311550140e-01</leafValues></_>
        <_>
          <internalNodes>
            0 -1 532 -5.1661031320691109e-03</internalNodes>
          <leafValues>
            2.3488566279411316e-01 -1.1069627106189728e-01</leafValues></_>
        <_>
          <internalNodes>
            0 -1 448 6.9884568452835083e-02</internalNodes>
          <leafValues>
            4.5747660100460052e-02 -5.9015649557113647e-01</leafValues></_>
        <_>
          <internalNodes>
            0 -1 243 -7.5405761599540710e-02</internalNodes>
          <leafValues>
            -7.1757280826568604e-01 2.8033388778567314e-02</leafValues></_></weakClassifiers></_>
    <!-- stage 16 -->
    <_>
      <maxWeakCount>56</maxWeakCount>
      <stageThreshold>-9.7283065319061279e-01</stageThreshold>
      <weakClassifiers>
        <_>
          <internalNodes>
            0 -1 273 -1.5752967447042465e-02</internalNodes>
          <leafValues>
            2.0995962619781494e-01 -1.9630873203277588e-01</leafValues></_>
        <_>
          <internalNodes>
            0 -1 460 -7.6140714809298515e-03</internalNodes>
